%YAML:1.0
my_svm: !!opencv-ml-svm
   svm_type: C_SVC
   kernel: { type:RBF, gamma:60. }
   C: 1000.
   term_criteria: { epsilon:1.1920928955078125e-007, iterations:1000 }
   var_all: 64
   var_count: 64
   class_count: 2
   class_labels: !!opencv-matrix
      rows: 1
      cols: 2
      dt: i
      data: [ -1, 1 ]
   sv_total: 143
   support_vectors:
      - [ 5.43884933e-003, 5.95241832e-003, 4.71522240e-003,
          4.69510816e-003, 4.12537251e-003, 3.51095060e-003,
          4.60240059e-003, 3.37936007e-003, 3.90152331e-003,
          7.27388950e-004, 6.51565497e-004, 0., 1.26465841e-003,
          6.95933588e-004, 9.69171873e-004, 2.54325452e-003,
          2.92832851e-002, 2.03369167e-002, 2.42823176e-002,
          4.09935527e-002, 4.32512313e-002, 1.90641619e-002,
          1.79900043e-002, 2.45214067e-002, 2.51548141e-002,
          1.89085137e-002, 2.02936716e-002, 3.37162279e-002,
          4.59594205e-002, 2.35039853e-002, 1.98433474e-002,
          2.88291592e-002, 5.27712405e-002, 4.01056521e-002,
          3.48107703e-002, 3.61071229e-002, 4.36181277e-002,
          4.46217470e-002, 4.10751179e-002, 4.51297127e-002,
          4.81348969e-002, 3.58199030e-002, 3.35651077e-002,
          3.48755643e-002, 3.72897051e-002, 3.96723896e-002,
          3.90301533e-002, 3.90772969e-002, 2.36958116e-001,
          1.99320197e-001, 2.09137693e-001, 2.95235217e-001,
          3.30265403e-001, 2.25098684e-001, 2.06196249e-001,
          2.39503756e-001, 2.39370555e-001, 2.08549738e-001,
          2.17200503e-001, 2.84421742e-001, 3.16257387e-001,
          2.18420178e-001, 2.08529964e-001, 2.31759578e-001 ]
      - [ 8.29662371e-004, 5.48741722e-004, 6.55341893e-004,
          1.78979570e-003, 2.06878665e-003, 0., 8.41337198e-004,
          5.08055033e-004, 1.42623589e-003, 6.67317247e-004,
          3.62977298e-004, 4.31715598e-004, 1.58244791e-003,
          9.72321315e-004, 1.03008701e-003, 7.40173331e-004,
          1.36990985e-002, 1.43760610e-002, 1.76458880e-002,
          4.24228087e-002, 3.83874997e-002, 2.49567498e-002,
          2.44021490e-002, 4.35379557e-002, 3.09563614e-002,
          2.03337315e-002, 2.60879081e-002, 4.38011363e-002,
          4.00950685e-002, 2.00555790e-002, 1.65372547e-002,
          1.40900938e-002, 3.62308174e-002, 2.75988989e-002,
          2.70560011e-002, 2.96059959e-002, 3.16445455e-002,
          3.07595953e-002, 3.01583018e-002, 2.90124379e-002,
          3.98845896e-002, 3.55169177e-002, 3.46398242e-002,
          3.83512750e-002, 4.00783345e-002, 3.53430957e-002,
          3.22979502e-002, 3.16328928e-002, 2.26046249e-001,
          1.91414177e-001, 2.11133018e-001, 3.21636736e-001,
          3.01660329e-001, 2.08378777e-001, 1.95791364e-001,
          2.55142778e-001, 2.32210696e-001, 2.04745129e-001,
          2.25151390e-001, 3.26792002e-001, 3.00376654e-001,
          2.14699626e-001, 1.98774770e-001, 2.56620735e-001 ]
      - [ 4.23169369e-003, 4.73745866e-004, 2.44644028e-003,
          4.81618242e-003, 1.08117908e-002, 7.71142077e-003,
          4.98975813e-003, 5.50682750e-003, 4.84147063e-003,
          5.12822019e-003, 4.98563936e-003, 8.87210295e-003,
          1.04923947e-002, 6.73803175e-003, 3.21995514e-003,
          2.14917795e-003, 4.52996530e-002, 2.37454399e-002,
          2.45332941e-002, 4.02450599e-002, 3.52914520e-002,
          1.75339449e-002, 1.88837890e-002, 4.65988964e-002,
          3.04111354e-002, 1.81229655e-002, 1.81466565e-002,
          3.11230440e-002, 3.94215472e-002, 2.37620529e-002,
          2.61535365e-002, 5.87748215e-002, 4.04025950e-002,
          3.27766463e-002, 3.13407741e-002, 3.53345051e-002,
          3.70184891e-002, 3.27609219e-002, 3.22303437e-002,
          3.28841172e-002, 4.30684946e-002, 3.40358615e-002,
          3.46819274e-002, 3.58390398e-002, 3.82842608e-002,
          3.60653624e-002, 3.38922366e-002, 3.18976790e-002,
          2.12878928e-001, 1.90550655e-001, 2.10717469e-001,
          3.26047838e-001, 3.10900778e-001, 2.11924866e-001,
          1.94342360e-001, 2.39226207e-001, 2.21113220e-001,
          2.04182863e-001, 2.25822389e-001, 3.34560961e-001,
          3.11011314e-001, 2.17249691e-001, 2.00097591e-001,
          2.35281244e-001 ]
      - [ 1.38819963e-003, 7.96567125e-004, 7.23989622e-004,
          1.04335044e-003, 1.47175300e-003, 8.55201622e-004,
          1.27119175e-003, 6.98440010e-004, 9.83330305e-004,
          7.39302603e-004, 4.46089602e-004, 1.17687334e-003,
          2.12497683e-003, 1.55000249e-003, 1.95066084e-003,
          1.43989234e-003, 6.85127312e-003, 7.29240570e-003,
          1.04824388e-002, 3.12404614e-002, 2.07796153e-002,
          6.75569195e-003, 8.79271794e-003, 9.90371965e-003,
          8.24996177e-003, 7.15205492e-003, 8.61759577e-003,
          2.85509899e-002, 2.07166616e-002, 8.12283438e-003,
          7.90377147e-003, 5.85484924e-003, 5.93490824e-002,
          4.56861407e-002, 4.64418083e-002, 5.46497293e-002,
          5.29906116e-002, 4.70963866e-002, 4.27936390e-002,
          4.38878238e-002, 5.80744818e-002, 5.03603891e-002,
          5.19091934e-002, 5.78548685e-002, 5.39729409e-002,
          4.87883501e-002, 4.72630896e-002, 4.67453301e-002,
          2.11430833e-001, 1.81282863e-001, 2.04512209e-001,
          3.40293288e-001, 3.23293597e-001, 2.04231903e-001,
          1.83529630e-001, 2.22860023e-001, 2.17652783e-001,
          1.99734211e-001, 2.20343262e-001, 3.30591619e-001,
          3.27249646e-001, 2.18019381e-001, 1.91891611e-001,
          2.32400611e-001 ]
      - [ 2.58860760e-003, 2.00130581e-003, 7.83062191e-004,
          1.29787426e-003, 2.60046427e-003, 1.22437242e-003,
          2.50006444e-003, 9.13655292e-003, 8.45906883e-003,
          1.26779045e-003, 1.60499185e-003, 4.69607417e-004,
          2.70128902e-003, 1.54263410e-003, 1.91617059e-003,
          2.57909880e-003, 1.02679571e-002, 9.81014688e-003,
          1.05119459e-002, 1.78649742e-002, 1.82048716e-002,
          1.25677027e-002, 1.74364764e-002, 3.94602604e-002,
          2.71352176e-002, 1.32950358e-002, 1.33653665e-002,
          2.56992131e-002, 1.98401567e-002, 1.06180543e-002,
          1.04286941e-002, 9.87588428e-003, 5.35903089e-002,
          2.95771342e-002, 3.10659185e-002, 3.77512202e-002,
          6.13912158e-002, 3.14923003e-002, 3.61952148e-002,
          5.58140017e-002, 5.45245856e-002, 3.21229957e-002,
          2.65949853e-002, 3.30299810e-002, 6.55949414e-002,
          3.71442921e-002, 3.50199193e-002, 5.45319617e-002,
          2.43138760e-001, 1.81302965e-001, 1.83841065e-001,
          2.71945685e-001, 3.18832159e-001, 1.92269608e-001,
          1.87055692e-001, 2.95272499e-001, 2.51178384e-001,
          1.88584983e-001, 1.92405462e-001, 3.01543236e-001,
          3.26970905e-001, 2.07547635e-001, 2.05161110e-001,
          2.90036350e-001 ]
      - [ 2.20381608e-003, 2.00422946e-003, 1.96096557e-003,
          2.81823240e-003, 3.13200150e-003, 2.45628646e-003,
          1.46222266e-003, 5.66898962e-004, 1.63117319e-003,
          1.34930515e-003, 1.30617165e-003, 1.34565902e-003,
          3.13754869e-003, 1.57040323e-003, 1.73657981e-003,
          1.76016521e-003, 1.33903287e-002, 1.37053626e-002,
          1.37874940e-002, 1.70763265e-002, 2.12764852e-002,
          1.09913526e-002, 1.06192492e-002, 1.04066078e-002,
          1.17594041e-002, 1.16411326e-002, 1.20199164e-002,
          1.89259350e-002, 2.57791840e-002, 1.62393861e-002,
          1.50667354e-002, 1.26486793e-002, 5.84939867e-002,
          3.90897244e-002, 4.93191443e-002, 4.46454994e-002,
          2.75075287e-002, 3.01964823e-002, 2.90868245e-002,
          5.23114689e-002, 5.69348596e-002, 4.07078043e-002,
          5.40380552e-002, 5.20008951e-002, 3.36184651e-002,
          3.42645347e-002, 3.39850560e-002, 4.87337559e-002,
          2.97364861e-001, 2.07643732e-001, 2.12857142e-001,
          2.44523793e-001, 2.31890395e-001, 1.89210206e-001,
          1.95762739e-001, 3.13984126e-001, 3.01259130e-001,
          2.16124609e-001, 2.29037359e-001, 2.69567877e-001,
          2.54440397e-001, 2.01937690e-001, 2.01119840e-001,
          3.05829346e-001 ]
      - [ 7.47865590e-004, 4.64794633e-004, 6.25779445e-004,
          3.02909478e-003, 7.09926290e-003, 1.01906783e-003,
          6.96199306e-004, 4.54838155e-004, 9.31054645e-004,
          9.32494819e-004, 6.52557355e-004, 2.21794727e-003,
          4.37517790e-003, 1.04570785e-003, 8.12191400e-004,
          5.61700377e-004, 4.07941677e-002, 1.19713601e-002,
          1.33787328e-002, 2.36034580e-002, 3.07796560e-002,
          1.59634352e-002, 1.58468876e-002, 4.12069336e-002,
          4.45287973e-002, 1.69463679e-002, 1.79952420e-002,
          2.63990909e-002, 2.61431281e-002, 1.08118607e-002,
          1.19008273e-002, 5.01978360e-002, 4.69714887e-002,
          3.14005166e-002, 3.17407474e-002, 3.39773893e-002,
          3.66796069e-002, 3.61762233e-002, 3.32715884e-002,
          3.96693759e-002, 4.50286455e-002, 2.99504362e-002,
          3.26013193e-002, 3.75856198e-002, 4.10626046e-002,
          3.29270698e-002, 2.86728945e-002, 4.18064743e-002,
          2.41835177e-001, 1.93213031e-001, 2.03240529e-001,
          3.14839929e-001, 2.99977005e-001, 2.13473424e-001,
          1.91096917e-001, 2.59823859e-001, 2.37454653e-001,
          2.06600428e-001, 2.22845718e-001, 3.19414139e-001,
          2.92914093e-001, 2.19056308e-001, 1.98012546e-001,
          2.57788241e-001 ]
      - [ 6.12834329e-003, 3.05918371e-003, 2.11193506e-003,
          1.39590981e-003, 3.35638970e-003, 0., 2.81976158e-004,
          1.38501683e-003, 1.74627127e-003, 1.19142886e-003,
          1.81539007e-003, 8.86958558e-004, 1.00246668e-002,
          9.04973410e-003, 8.19125585e-003, 7.00497534e-003,
          9.82834306e-003, 1.20335352e-002, 9.99682862e-003,
          1.47848884e-002, 3.05855852e-002, 1.22019658e-002,
          1.07633825e-002, 1.31123783e-002, 1.35721052e-002,
          1.09567102e-002, 1.12073030e-002, 1.65383294e-002,
          3.51492092e-002, 1.80868544e-002, 1.44404201e-002,
          1.19581688e-002, 4.63664755e-002, 3.34444903e-002,
          3.29846703e-002, 3.59815247e-002, 3.76805328e-002,
          3.73709053e-002, 3.59049812e-002, 4.04881015e-002,
          5.06110936e-002, 3.82414758e-002, 3.92820276e-002,
          4.06281054e-002, 4.06479388e-002, 4.26210575e-002,
          4.13390473e-002, 4.16609384e-002, 2.24823862e-001,
          1.96880072e-001, 2.12983280e-001, 2.80710638e-001,
          3.07081103e-001, 2.17763811e-001, 2.05052167e-001,
          2.32424662e-001, 2.27476552e-001, 2.18603611e-001,
          2.31421649e-001, 2.91688263e-001, 3.31860572e-001,
          2.39774615e-001, 2.19219282e-001, 2.53855765e-001 ]
      - [ 3.26565653e-003, 9.38429963e-004, 2.01248028e-003,
          2.10704911e-003, 6.05133595e-003, 3.31422896e-003,
          7.29996292e-003, 5.86513616e-003, 6.85796840e-003,
          4.52686334e-003, 5.33681735e-003, 4.86575998e-003,
          7.05821067e-003, 3.23964586e-003, 4.41451138e-003,
          2.55073071e-003, 1.45037826e-002, 1.62822492e-002,
          1.70266088e-002, 2.77908985e-002, 2.34508589e-002,
          1.12306187e-002, 1.04930894e-002, 9.12442338e-003,
          9.63961799e-003, 9.27816797e-003, 1.18884929e-002,
          2.74545401e-002, 2.56592557e-002, 1.57953929e-002,
          1.27804587e-002, 1.26482863e-002, 3.55855711e-002,
          2.60265172e-002, 2.62308791e-002, 3.09196040e-002,
          2.87465118e-002, 2.69534830e-002, 2.83783544e-002,
          2.54612695e-002, 3.62840816e-002, 2.96996143e-002,
          3.04042995e-002, 3.14379074e-002, 3.14757451e-002,
          3.03255357e-002, 3.09220403e-002, 2.72636861e-002,
          1.97903231e-001, 1.86151579e-001, 2.03919321e-001,
          2.85825074e-001, 3.91566575e-001, 2.07586721e-001,
          1.85409039e-001, 2.00630337e-001, 2.04583406e-001,
          2.00222462e-001, 2.15478256e-001, 3.10238242e-001,
          3.86716038e-001, 2.34335646e-001, 2.03247845e-001,
          2.05118343e-001 ]
      - [ 1.79626292e-003, 1.50529447e-003, 1.67412753e-003,
          4.36075730e-003, 1.28215970e-002, 1.05257649e-002,
          8.31471384e-003, 2.89155962e-003, 2.73400848e-003,
          1.26610883e-003, 1.91741518e-003, 2.18431582e-003,
          6.85412111e-003, 4.53697378e-003, 2.77170609e-003,
          1.12892117e-003, 1.83693729e-002, 1.99353937e-002,
          2.46418323e-002, 3.87172773e-002, 4.03415710e-002,
          2.23330110e-002, 2.05340143e-002, 1.92372557e-002,
          2.01410279e-002, 1.73461605e-002, 2.25513633e-002,
          3.96444239e-002, 4.28700894e-002, 2.35032197e-002,
          2.21588779e-002, 1.89979039e-002, 6.19857796e-002,
          4.85538282e-002, 5.03125824e-002, 5.44315279e-002,
          5.01121543e-002, 4.84785736e-002, 4.71616462e-002,
          4.73535731e-002, 5.94726577e-002, 4.57998402e-002,
          4.63075042e-002, 5.21982163e-002, 4.21852842e-002,
          4.30858172e-002, 4.22291756e-002, 4.81234603e-002,
          2.10692421e-001, 1.94397390e-001, 2.14663759e-001,
          3.46809119e-001, 2.95080364e-001, 2.08097532e-001,
          1.96620092e-001, 2.18198955e-001, 2.10476696e-001,
          1.96126878e-001, 2.18083799e-001, 3.64339441e-001,
          3.01629394e-001, 2.10521474e-001, 1.94484562e-001,
          2.17019141e-001 ]
      - [ 1.52492116e-003, 9.41492908e-004, 8.25727766e-004,
          1.42615405e-003, 1.84855133e-003, 8.98421975e-004,
          1.26951188e-003, 1.10288372e-003, 1.40958291e-003,
          9.88947460e-004, 9.79280216e-004, 1.19937176e-003,
          1.82400062e-003, 1.00411172e-003, 9.78854019e-004,
          1.13503600e-003, 1.89304817e-002, 1.68334376e-002,
          1.40858870e-002, 2.50607207e-002, 2.84295175e-002,
          1.61117222e-002, 1.86183732e-002, 3.39778252e-002,
          3.77500020e-002, 1.60110071e-002, 1.71223208e-002,
          2.67157592e-002, 2.38611642e-002, 1.33013865e-002,
          1.38847958e-002, 1.78647246e-002, 6.20019361e-002,
          4.70464714e-002, 4.58857901e-002, 4.91028391e-002,
          5.07222190e-002, 5.05186021e-002, 5.06440140e-002,
          4.87405136e-002, 6.07039519e-002, 4.76618744e-002,
          4.99567129e-002, 5.41550107e-002, 5.44052869e-002,
          5.01666218e-002, 4.99255098e-002, 5.13150431e-002,
          2.32204556e-001, 2.10405126e-001, 2.22179636e-001,
          2.88977414e-001, 3.11013639e-001, 2.27922589e-001,
          2.13588133e-001, 2.24661037e-001, 2.25173637e-001,
          2.10737407e-001, 2.25291118e-001, 2.92581081e-001,
          3.11253995e-001, 2.24373654e-001, 2.09045649e-001,
          2.26134107e-001 ]
      - [ 1.30958972e-003, 8.93187593e-004, 1.38292741e-003,
          2.17993907e-003, 2.52266321e-003, 1.29558146e-003,
          1.12198410e-003, 1.05257903e-003, 1.51997234e-003,
          1.29099353e-003, 1.19816605e-003, 1.61123544e-003,
          2.77011911e-003, 1.30210584e-003, 8.98662547e-004,
          8.51681456e-004, 7.01459451e-003, 6.98108273e-003,
          9.43265203e-003, 2.96705607e-002, 4.26602922e-002,
          1.03566507e-002, 8.77830945e-003, 7.46204192e-003,
          8.18924885e-003, 9.33425874e-003, 1.13597019e-002,
          2.80708782e-002, 4.19637077e-002, 1.23124914e-002,
          9.50657111e-003, 7.29403971e-003, 4.67423461e-002,
          3.57702523e-002, 3.36837694e-002, 3.72677781e-002,
          3.99472602e-002, 3.82180251e-002, 3.85574102e-002,
          3.58486958e-002, 4.63146046e-002, 3.51128019e-002,
          3.76306176e-002, 4.10620123e-002, 4.09680270e-002,
          3.87578942e-002, 3.90645117e-002, 3.80134210e-002,
          1.97474405e-001, 1.80169761e-001, 1.85320601e-001,
          2.93894321e-001, 4.06160444e-001, 2.04481393e-001,
          1.85196072e-001, 1.95894450e-001, 2.00297698e-001,
          1.88006774e-001, 2.07524329e-001, 3.21972281e-001,
          3.95784229e-001, 2.15690255e-001, 1.89755201e-001,
          1.90421462e-001 ]
      - [ 2.19814223e-003, 1.26913656e-003, 1.32357806e-003,
          1.49881060e-003, 3.40892188e-003, 1.98903168e-003,
          1.73185917e-003, 1.43559836e-003, 1.82756817e-003,
          1.30405475e-003, 8.82674125e-004, 1.06218120e-003,
          2.48767738e-003, 2.22009793e-003, 1.20252022e-003,
          9.00756044e-004, 1.94356143e-002, 2.13657897e-002,
          2.64532678e-002, 4.26388271e-002, 3.42474803e-002,
          1.52814416e-002, 1.21967765e-002, 1.23611363e-002,
          1.48454392e-002, 1.76913030e-002, 1.76717024e-002,
          2.70074811e-002, 5.04664816e-002, 2.46442240e-002,
          2.26018783e-002, 1.88765880e-002, 3.95363793e-002,
          2.23956164e-002, 2.55958196e-002, 3.54833007e-002,
          4.64871190e-002, 3.73883769e-002, 3.26610804e-002,
          3.42388190e-002, 4.14756201e-002, 2.68423334e-002,
          2.72483826e-002, 3.99334915e-002, 4.67002951e-002,
          3.22781131e-002, 2.79788487e-002, 3.57777067e-002,
          2.54796237e-001, 1.91470876e-001, 2.09036797e-001,
          3.03740293e-001, 2.97615469e-001, 1.97628215e-001,
          1.86890990e-001, 2.80380934e-001, 2.60735840e-001,
          1.95142791e-001, 2.22747862e-001, 3.09979558e-001,
          3.07873338e-001, 2.03244746e-001, 1.86672926e-001,
          2.60829657e-001 ]
      - [ 1.32073055e-003, 1.08468882e-003, 1.45224750e-003,
          1.60418625e-003, 2.60223541e-003, 1.31786638e-003,
          1.12971780e-003, 1.05197448e-003, 1.87189656e-003,
          1.43887196e-003, 1.29674608e-003, 1.33921939e-003,
          1.69476157e-003, 1.26501417e-003, 1.70644687e-003,
          1.84147141e-003, 1.61205437e-002, 1.54623585e-002,
          2.04074625e-002, 5.70118651e-002, 4.61589620e-002,
          2.14411095e-002, 1.97441000e-002, 2.05774382e-002,
          1.80701390e-002, 1.78011656e-002, 2.17553489e-002,
          5.48188873e-002, 4.57432047e-002, 2.54630819e-002,
          2.42332779e-002, 1.73329841e-002, 2.63472237e-002,
          2.17067003e-002, 2.07241178e-002, 2.18322966e-002,
          2.20545586e-002, 2.00911015e-002, 2.16477495e-002,
          2.36379765e-002, 3.13522667e-002, 2.85439510e-002,
          2.75013912e-002, 2.84500998e-002, 2.89600324e-002,
          2.48453282e-002, 2.47114096e-002, 2.04649512e-002,
          1.96815491e-001, 1.84210524e-001, 2.29713440e-001,
          3.95699263e-001, 2.91117042e-001, 1.77276015e-001,
          1.68533102e-001, 1.80075273e-001, 2.04495937e-001,
          2.09661424e-001, 2.65118331e-001, 4.01113033e-001,
          3.00498068e-001, 2.04325005e-001, 1.81966171e-001,
          1.83483258e-001 ]
      - [ 2.52190599e-004, 3.68437875e-004, 0., 9.04556189e-004,
          7.57607515e-004, 1.03547855e-003, 6.37918420e-004,
          3.28784721e-004, 5.72540564e-004, 1.95558486e-003,
          5.21990890e-003, 1.57848001e-002, 1.57682281e-002,
          1.22519373e-003, 5.69892407e-004, 4.99558868e-004,
          1.16181802e-002, 1.51510267e-002, 2.15242133e-002,
          3.72584164e-002, 3.70416865e-002, 1.75287183e-002,
          1.12276813e-002, 9.21314117e-003, 9.70904995e-003,
          1.01866107e-002, 1.30991405e-002, 3.34852673e-002,
          4.15612310e-002, 2.14131195e-002, 1.67784132e-002,
          1.27995620e-002, 4.95553277e-002, 2.27082577e-002,
          2.83498671e-002, 5.18488660e-002, 5.11115417e-002,
          1.89932305e-002, 2.04452258e-002, 6.00411147e-002,
          4.80463132e-002, 2.07086653e-002, 2.58257370e-002,
          7.19083771e-002, 4.47819792e-002, 1.73606426e-002,
          1.89371090e-002, 5.78029752e-002, 2.33661339e-001,
          1.44066155e-001, 1.55788034e-001, 3.60309422e-001,
          2.86307365e-001, 1.58111528e-001, 1.56017929e-001,
          3.28849077e-001, 2.21798778e-001, 1.54066503e-001,
          1.75207615e-001, 4.00381655e-001, 2.75348872e-001,
          1.50344849e-001, 1.50516734e-001, 3.30583721e-001 ]
      - [ 0., 0., 0., 0., 0., 0., 0., 0., 0., 0., 0., 0., 0., 0., 0., 0.,
          1.43018318e-002, 1.26125338e-002, 1.27171632e-002,
          1.91811193e-002, 1.89922508e-002, 1.13044977e-002,
          1.24499081e-002, 1.43280644e-002, 1.70245282e-002,
          1.21468352e-002, 1.62228923e-002, 2.17949674e-002,
          2.56818961e-002, 1.66721437e-002, 1.53346267e-002,
          1.85836740e-002, 6.28493503e-002, 4.35251631e-002,
          4.80988324e-002, 5.33716418e-002, 4.18792628e-002,
          3.80536020e-002, 3.96111906e-002, 5.57035729e-002,
          5.95970489e-002, 3.57300080e-002, 3.64118926e-002,
          3.73959020e-002, 3.61960866e-002, 3.32006738e-002,
          3.53192650e-002, 4.42333892e-002, 2.23406002e-001,
          1.87674358e-001, 2.16031596e-001, 3.43045801e-001,
          2.98834652e-001, 1.91691056e-001, 1.81206048e-001,
          2.24689171e-001, 2.27521300e-001, 2.07207829e-001,
          2.35815376e-001, 3.52659136e-001, 3.00592542e-001,
          2.14190125e-001, 2.00726658e-001, 2.31216848e-001 ]
      - [ 5.03429619e-004, 2.66302144e-004, 0., 0., 3.65680287e-004, 0.,
          0., 0., 0., 0., 0., 0., 2.58575019e-004, 0., 1.53749628e-004,
          2.29909318e-004, 1.25054820e-002, 1.38050998e-002,
          1.25418101e-002, 1.25253433e-002, 1.05928024e-002,
          3.52102006e-003, 4.97925747e-003, 5.27664088e-003,
          5.84214414e-003, 3.92278796e-003, 3.91688803e-003,
          9.13202763e-003, 1.51768709e-002, 1.55384541e-002,
          2.03781966e-002, 1.65163372e-002, 7.19585717e-002,
          1.90504529e-002, 1.68746598e-002, 3.14987302e-002,
          3.05449925e-002, 1.18492898e-002, 1.30946254e-002,
          6.62030503e-002, 7.35775605e-002, 2.47766506e-002,
          2.21986864e-002, 5.20513244e-002, 5.11504039e-002,
          2.15769317e-002, 2.08241642e-002, 6.47667050e-002,
          2.71990925e-001, 1.46153003e-001, 1.55465454e-001,
          3.36170167e-001, 3.41209561e-001, 1.59398675e-001,
          1.48397356e-001, 2.96524227e-001, 2.62700021e-001,
          1.57367021e-001, 1.65490359e-001, 3.56196374e-001,
          3.30495179e-001, 1.56945184e-001, 1.45598486e-001,
          2.84729362e-001 ]
      - [ 3.38360900e-003, 1.11504155e-003, 2.25523394e-003,
          3.78294056e-003, 1.08574815e-002, 4.77580447e-003,
          2.01857113e-003, 6.59928238e-003, 3.46597587e-003,
          3.41940741e-003, 2.56160251e-003, 5.73148578e-003,
          8.34215619e-003, 2.14612926e-003, 2.67813168e-003,
          4.33647493e-003, 3.54959480e-002, 2.43068226e-002,
          2.57632211e-002, 3.47594172e-002, 3.49836573e-002,
          1.65160988e-002, 1.81820691e-002, 2.65974589e-002,
          3.14498730e-002, 2.24964414e-002, 2.11129561e-002,
          3.37618254e-002, 3.80557925e-002, 2.24049818e-002,
          2.33870372e-002, 4.50034961e-002, 3.56895700e-002,
          2.00329088e-002, 3.00505608e-002, 5.21101505e-002,
          4.42929864e-002, 2.19352860e-002, 1.86851155e-002,
          2.59436164e-002, 3.98284756e-002, 2.34370008e-002,
          3.32974680e-002, 5.86927570e-002, 4.62167077e-002,
          2.26853751e-002, 1.94593724e-002, 2.91289669e-002,
          2.69705832e-001, 2.13409215e-001, 2.22747236e-001,
          2.91101664e-001, 2.52500474e-001, 1.91007823e-001,
          2.00189814e-001, 2.72937685e-001, 2.76439548e-001,
          2.24540800e-001, 2.33646616e-001, 3.11921865e-001,
          2.64164001e-001, 1.97475746e-001, 2.02373475e-001,
          2.65554726e-001 ]
      - [ 9.80313122e-003, 4.21078783e-003, 4.29313537e-003,
          2.31477362e-003, 4.05477732e-003, 4.60784510e-003,
          6.37105480e-003, 1.54534215e-002, 1.28954267e-002,
          6.83588581e-003, 3.61807714e-003, 9.78749245e-004,
          3.93847050e-003, 3.13370582e-003, 3.10304714e-003,
          1.29942438e-002, 5.58646694e-002, 2.34173276e-002,
          1.90576315e-002, 3.23494337e-002, 3.00243888e-002,
          1.50788631e-002, 1.58046316e-002, 4.63417135e-002,
          2.95891315e-002, 1.37912100e-002, 1.59199815e-002,
          2.74865329e-002, 3.13185751e-002, 2.03549080e-002,
          2.43497882e-002, 8.36822465e-002, 4.57314588e-002,
          3.30259614e-002, 3.62765081e-002, 4.16421369e-002,
          4.03697342e-002, 3.81211154e-002, 3.48424353e-002,
          4.00779359e-002, 4.76226993e-002, 3.14406715e-002,
          3.40089127e-002, 4.37305644e-002, 4.24240232e-002,
          3.86081003e-002, 3.71005647e-002, 3.62109318e-002,
          2.05616817e-001, 1.83303937e-001, 2.06999645e-001,
          3.47950935e-001, 3.04190218e-001, 2.05242008e-001,
          1.84939772e-001, 2.35877767e-001, 2.12671354e-001,
          1.93539158e-001, 2.23037243e-001, 3.69563162e-001,
          3.04700285e-001, 2.07739219e-001, 1.88664168e-001,
          2.23851502e-001 ]
      - [ 1.37405063e-003, 1.19236123e-003, 1.31906045e-003,
          1.40170916e-003, 1.89837161e-003, 1.02107716e-003,
          1.01895665e-003, 1.07699179e-003, 9.83155100e-004,
          4.97962406e-004, 6.27282716e-004, 6.18011109e-004,
          9.35235119e-004, 7.45029072e-004, 7.67931633e-004,
          1.35764631e-003, 1.21866213e-002, 1.26462141e-002,
          1.43601885e-002, 1.83279905e-002, 2.10415889e-002,
          1.37784593e-002, 1.20306900e-002, 2.60167755e-002,
          2.56925821e-002, 1.53490109e-002, 1.36909829e-002,
          2.28128526e-002, 2.73412745e-002, 1.27932550e-002,
          1.23704150e-002, 1.23858135e-002, 6.54889420e-002,
          4.67899442e-002, 4.77959216e-002, 5.46393879e-002,
          6.11107834e-002, 5.45947962e-002, 5.23386598e-002,
          5.40651865e-002, 6.39860108e-002, 4.68327589e-002,
          4.99508344e-002, 6.09043725e-002, 5.51100448e-002,
          5.31939007e-002, 5.29180542e-002, 5.45718670e-002,
          2.18266517e-001, 2.05507636e-001, 2.19230101e-001,
          3.16138476e-001, 2.85707146e-001, 2.17081025e-001,
          2.12001994e-001, 2.34282359e-001, 2.29123890e-001,
          2.09951103e-001, 2.27096632e-001, 3.08240384e-001,
          2.91119903e-001, 2.27137044e-001, 2.18763709e-001,
          2.29705945e-001 ]
      - [ 3.58562102e-003, 1.54561561e-003, 1.90710451e-003,
          1.60183909e-003, 2.83619016e-003, 1.50321203e-003,
          1.46254420e-003, 2.06966768e-003, 3.53254867e-003,
          3.30718257e-003, 2.98469304e-003, 4.45649633e-003,
          4.62977123e-003, 3.32376407e-003, 3.64267826e-003,
          4.37491108e-003, 1.26606803e-002, 1.17329964e-002,
          1.71953142e-002, 4.02116217e-002, 5.88259511e-002,
          1.46168312e-002, 1.09124845e-002, 1.23510705e-002,
          1.44813173e-002, 1.33426897e-002, 1.72020607e-002,
          4.32261676e-002, 5.36821075e-002, 1.41756861e-002,
          9.48695093e-003, 1.06812539e-002, 4.50210646e-002,
          3.20604630e-002, 3.50496136e-002, 4.18516286e-002,
          4.16239277e-002, 3.30071338e-002, 3.20874751e-002,
          3.75477001e-002, 4.56629954e-002, 3.71167846e-002,
          3.60992849e-002, 4.69256900e-002, 5.34422360e-002,
          3.45786773e-002, 3.56825106e-002, 3.73940654e-002,
          2.59164065e-001, 1.91910312e-001, 2.02800378e-001,
          2.97083110e-001, 3.34926993e-001, 1.99125454e-001,
          1.91711172e-001, 2.37860948e-001, 2.65179902e-001,
          1.97424710e-001, 2.12579459e-001, 2.84747303e-001,
          3.39833826e-001, 2.05718637e-001, 1.95896626e-001,
          2.29283780e-001 ]
      - [ 0., 0., 0., 0., 0., 0., 0., 0., 0., 0., 0., 0., 0., 0., 0., 0.,
          2.06448939e-002, 2.12650076e-002, 2.77514718e-002,
          4.32605930e-002, 3.96038704e-002, 2.01073140e-002,
          1.98597144e-002, 1.88084003e-002, 1.80177111e-002,
          1.74359400e-002, 2.36960240e-002, 3.83317545e-002,
          4.68138494e-002, 2.85937153e-002, 2.21264884e-002,
          2.16604825e-002, 4.86970320e-002, 3.81050855e-002,
          4.01004404e-002, 4.26280573e-002, 4.98130694e-002,
          4.42041419e-002, 4.45248596e-002, 4.32381555e-002,
          4.72467542e-002, 3.56028304e-002, 3.71690392e-002,
          4.08117920e-002, 4.34696153e-002, 3.95726338e-002,
          3.88951376e-002, 3.93436365e-002, 2.12876007e-001,
          2.09840581e-001, 2.31643930e-001, 3.27188760e-001,
          2.78521687e-001, 2.14946344e-001, 2.08890989e-001,
          2.19247028e-001, 2.28721336e-001, 2.28449717e-001,
          2.45102614e-001, 3.14890921e-001, 2.82776624e-001,
          2.31524229e-001, 2.17148855e-001, 2.20310181e-001 ]
      - [ 0., 0., 0., 0., 0., 0., 0., 0., 0., 0., 0., 0., 0., 0., 0., 0.,
          3.44254002e-002, 3.20147239e-002, 3.09020691e-002,
          4.24829908e-002, 4.71155420e-002, 2.77370196e-002,
          2.95425635e-002, 2.90662739e-002, 2.81577017e-002,
          2.59570666e-002, 2.68608462e-002, 4.19034213e-002,
          4.93225791e-002, 3.26634049e-002, 2.98330542e-002,
          3.23373862e-002, 5.12874201e-002, 3.86556722e-002,
          3.53490449e-002, 3.79144847e-002, 3.83202806e-002,
          3.73331197e-002, 4.09131348e-002, 4.30815183e-002,
          5.28334826e-002, 4.19302173e-002, 4.02454920e-002,
          4.38734330e-002, 4.40073535e-002, 4.16074395e-002,
          4.09930833e-002, 4.08336036e-002, 2.41953015e-001,
          2.16944799e-001, 2.21018851e-001, 2.79524237e-001,
          2.72077113e-001, 2.24997431e-001, 2.26487920e-001,
          2.51748145e-001, 2.53062129e-001, 2.25542888e-001,
          2.30488896e-001, 2.81907290e-001, 2.67376989e-001,
          2.27653474e-001, 2.26008639e-001, 2.42515489e-001 ]
      - [ 3.35995154e-003, 1.03209226e-003, 4.74595232e-004,
          1.35062879e-003, 4.48307814e-003, 7.68200029e-003,
          7.91216455e-003, 2.16654711e-003, 3.75134940e-003,
          9.35654563e-004, 8.53842008e-004, 8.59796652e-004,
          1.45519921e-003, 8.20184476e-004, 3.79644590e-003,
          8.31241312e-004, 4.00612503e-002, 2.10020244e-002,
          2.61118133e-002, 4.07516435e-002, 4.34406660e-002,
          1.28203873e-002, 1.10204704e-002, 9.97310411e-003,
          2.50703562e-002, 3.13083418e-002, 2.97752973e-002,
          4.43151742e-002, 3.24288048e-002, 1.22668389e-002,
          1.39342239e-002, 3.13810669e-002, 2.18922552e-002,
          1.40477978e-002, 1.38559593e-002, 1.57481432e-002,
          2.02726834e-002, 2.43115928e-002, 2.89023370e-002,
          2.08731964e-002, 2.73675658e-002, 2.30990294e-002,
          2.33146474e-002, 2.11634282e-002, 2.82880124e-002,
          4.02363539e-002, 3.25649306e-002, 1.73600260e-002,
          1.98980674e-001, 1.72791541e-001, 2.14203089e-001,
          3.12312573e-001, 2.91025281e-001, 1.94368646e-001,
          2.14116961e-001, 2.49931976e-001, 2.20419660e-001,
          2.04375327e-001, 2.46024832e-001, 3.57481629e-001,
          3.02007496e-001, 2.21098334e-001, 2.21138611e-001,
          2.55986124e-001 ]
      - [ 3.77793098e-003, 2.34826771e-003, 2.18994077e-003,
          2.69273133e-003, 3.91091220e-003, 2.25433568e-003,
          2.15036911e-003, 2.16217712e-003, 2.92724348e-003,
          1.07623462e-003, 1.22678257e-003, 1.69287762e-003,
          3.60086863e-003, 2.29465892e-003, 3.30698909e-003,
          2.61361082e-003, 3.60240750e-002, 1.14106284e-002,
          1.12356218e-002, 1.77270770e-002, 2.59819534e-002,
          1.45756910e-002, 1.72680989e-002, 4.29522954e-002,
          2.74170320e-002, 1.54027678e-002, 1.33098271e-002,
          1.75941791e-002, 2.96729673e-002, 1.35210566e-002,
          1.30238496e-002, 8.10086429e-002, 5.39301373e-002,
          3.27591449e-002, 3.13656330e-002, 3.81169207e-002,
          3.90269570e-002, 2.81791575e-002, 3.58666629e-002,
          5.20893782e-002, 5.88531680e-002, 3.50671746e-002,
          3.28433029e-002, 4.82254662e-002, 3.29799950e-002,
          3.56178246e-002, 3.32472883e-002, 5.49046472e-002,
          2.77682364e-001, 1.64450347e-001, 1.73138857e-001,
          2.47975811e-001, 2.59480387e-001, 1.78172141e-001,
          1.80421501e-001, 3.56603295e-001, 2.94757813e-001,
          1.77608356e-001, 1.91240668e-001, 2.64355093e-001,
          2.85678536e-001, 1.83472931e-001, 1.78415328e-001,
          3.63325238e-001 ]
      - [ 0., 0., 0., 0., 0., 0., 0., 0., 0., 0., 0., 0., 0., 0., 0., 0.,
          3.11543494e-002, 2.10029725e-002, 2.53685638e-002,
          3.76323052e-002, 4.20360826e-002, 1.79233439e-002,
          1.48856798e-002, 1.38739496e-002, 9.98313446e-003,
          1.29168956e-002, 1.78308133e-002, 3.35764959e-002,
          4.94892299e-002, 2.29577012e-002, 1.64800193e-002,
          2.17804797e-002, 5.53939566e-002, 4.21172567e-002,
          4.20970507e-002, 5.85695356e-002, 6.02946132e-002,
          4.58500721e-002, 4.25221585e-002, 4.18831706e-002,
          5.50428256e-002, 4.71505262e-002, 4.47027981e-002,
          4.74169925e-002, 4.79243994e-002, 4.03857455e-002,
          4.05726396e-002, 4.46043462e-002, 2.43773967e-001,
          2.04145491e-001, 2.07972303e-001, 2.93768644e-001,
          2.88512915e-001, 2.05243155e-001, 2.03352630e-001,
          2.54928231e-001, 2.45633394e-001, 2.16209784e-001,
          2.21253902e-001, 3.20752740e-001, 2.92047530e-001,
          2.03295529e-001, 1.99598089e-001, 2.53864020e-001 ]
      - [ 2.19551544e-003, 1.48578663e-003, 1.38758542e-003,
          1.66439381e-003, 2.94208387e-003, 1.91766548e-003,
          1.83406367e-003, 1.82466721e-003, 2.13235943e-003,
          1.20568147e-003, 1.09018874e-003, 1.55737065e-003,
          1.93210645e-003, 1.26090192e-003, 1.23898138e-003,
          1.66956196e-003, 2.75805909e-002, 2.91447509e-002,
          3.07432357e-002, 4.14098985e-002, 4.52240147e-002,
          2.81317905e-002, 2.36518737e-002, 2.28026044e-002,
          2.51501966e-002, 2.67885942e-002, 3.03523187e-002,
          4.22041044e-002, 4.45668995e-002, 2.77319532e-002,
          2.46124808e-002, 2.61689145e-002, 4.90065329e-002,
          3.51344831e-002, 3.84139530e-002, 4.14301008e-002,
          5.35081215e-002, 4.52197678e-002, 4.15720604e-002,
          4.13575321e-002, 5.04927076e-002, 3.87555249e-002,
          3.64624858e-002, 4.32387106e-002, 5.76405339e-002,
          4.84640896e-002, 4.14761566e-002, 4.09902520e-002,
          2.40132883e-001, 2.28187650e-001, 2.40022749e-001,
          2.92918175e-001, 2.66604245e-001, 2.21670866e-001,
          2.21308500e-001, 2.38822505e-001, 2.38631606e-001,
          2.31083050e-001, 2.39354134e-001, 2.99000859e-001,
          2.75489062e-001, 2.11963877e-001, 2.09784493e-001,
          2.25664943e-001 ]
      - [ 3.39217111e-003, 2.02727271e-003, 1.74337171e-003,
          1.32356712e-003, 2.04484607e-003, 4.12512396e-004,
          5.66223171e-004, 1.77761423e-004, 6.37607300e-004,
          4.79659328e-004, 1.01266080e-003, 1.31621375e-003,
          5.78681659e-003, 5.63710835e-003, 7.40977749e-003,
          4.78032557e-003, 1.49148805e-002, 1.51869310e-002,
          2.51040943e-002, 4.15366478e-002, 3.69442888e-002,
          1.49657698e-002, 1.17266430e-002, 1.17713185e-002,
          1.26126502e-002, 1.63147990e-002, 2.15559211e-002,
          3.80513296e-002, 3.82947065e-002, 1.62184816e-002,
          1.38425697e-002, 1.21783968e-002, 6.64993748e-002,
          2.41571292e-002, 2.74726674e-002, 7.78090730e-002,
          5.62667437e-002, 2.52849422e-002, 2.33385451e-002,
          7.54247829e-002, 6.05300032e-002, 2.68383455e-002,
          3.34055386e-002, 6.82571307e-002, 5.10069691e-002,
          2.18390487e-002, 2.04215534e-002, 7.07433671e-002,
          2.34147444e-001, 1.52997196e-001, 1.66797236e-001,
          3.56719971e-001, 2.99556404e-001, 1.51648238e-001,
          1.47971973e-001, 3.18628997e-001, 2.19903231e-001,
          1.64982438e-001, 1.80984557e-001, 3.91355842e-001,
          2.81371266e-001, 1.44410282e-001, 1.40185595e-001,
          3.15613449e-001 ]
      - [ 3.56804719e-003, 9.36609867e-004, 5.22945949e-004,
          1.47880346e-003, 1.83467881e-003, 1.25943986e-003,
          1.34796463e-003, 1.76679576e-003, 2.96754902e-003,
          2.18222477e-003, 1.48817722e-003, 1.65119371e-003,
          3.96025833e-003, 3.39967571e-003, 2.49060034e-003,
          1.57629442e-003, 2.33683269e-002, 1.35795604e-002,
          1.43950908e-002, 3.40927020e-002, 2.83451602e-002,
          1.02404095e-002, 8.84661544e-003, 9.22976900e-003,
          1.35890031e-002, 9.75330640e-003, 1.05918907e-002,
          3.24716158e-002, 2.76620816e-002, 1.56582259e-002,
          1.62961837e-002, 2.76047513e-002, 5.24107441e-002,
          3.99925150e-002, 3.75026055e-002, 3.87328155e-002,
          3.94486971e-002, 4.09169197e-002, 3.88795510e-002,
          4.23194729e-002, 5.20406254e-002, 4.14206833e-002,
          3.89082357e-002, 4.14316840e-002, 4.46175188e-002,
          4.15536650e-002, 4.26526107e-002, 4.37405966e-002,
          2.33166054e-001, 2.10397303e-001, 2.15257496e-001,
          2.96663046e-001, 2.72425145e-001, 2.13219419e-001,
          2.08529040e-001, 2.48012602e-001, 2.39994422e-001,
          2.23501876e-001, 2.34256044e-001, 3.10749322e-001,
          2.90891498e-001, 2.24279419e-001, 2.18040422e-001,
          2.55480200e-001 ]
      - [ 3.14471708e-003, 2.12092674e-003, 2.78964825e-003,
          3.00858961e-003, 5.64791122e-003, 2.83053587e-003,
          4.13145637e-003, 3.79546452e-003, 6.32640673e-003,
          9.27072391e-003, 1.28801214e-002, 1.50186084e-002,
          1.50425471e-002, 4.71739797e-003, 3.63730127e-003,
          3.18924943e-003, 1.13273403e-002, 1.07695088e-002,
          1.23397354e-002, 1.90208312e-002, 2.16073450e-002,
          9.64482781e-003, 9.94367525e-003, 8.78415443e-003,
          1.04683787e-002, 9.80057754e-003, 9.77222249e-003,
          1.61422808e-002, 2.50664447e-002, 1.51325222e-002,
          1.41408425e-002, 1.00688059e-002, 4.31499705e-002,
          3.70995067e-002, 3.94669622e-002, 4.77407500e-002,
          4.33312804e-002, 3.58095616e-002, 3.29309218e-002,
          3.45300473e-002, 4.66511063e-002, 4.09451425e-002,
          4.22422066e-002, 4.92977761e-002, 5.05375564e-002,
          3.98297124e-002, 3.72217223e-002, 3.38235758e-002,
          2.20524073e-001, 1.96748853e-001, 2.12744296e-001,
          2.87047148e-001, 3.13375205e-001, 2.14589342e-001,
          2.03082040e-001, 2.34761059e-001, 2.28116632e-001,
          2.17065543e-001, 2.26600796e-001, 2.96657175e-001,
          3.32562298e-001, 2.39174068e-001, 2.17784137e-001,
          2.43514240e-001 ]
      - [ 2.72029499e-003, 1.22298172e-003, 1.03358529e-003,
          8.01178685e-004, 1.60749524e-003, 1.31548778e-003,
          2.28393031e-003, 1.02761043e-002, 9.43289883e-003,
          2.63001490e-003, 1.17113418e-003, 1.46363571e-003,
          2.11837445e-003, 1.98399462e-003, 2.21716007e-003,
          2.83675222e-003, 2.09205896e-002, 1.63150039e-002,
          1.79830734e-002, 2.35452335e-002, 2.79096998e-002,
          1.42837390e-002, 1.46641275e-002, 3.09120249e-002,
          2.98688244e-002, 1.49798691e-002, 1.69050451e-002,
          2.58300044e-002, 2.88182106e-002, 1.64125226e-002,
          1.65120214e-002, 1.66377313e-002, 5.65281771e-002,
          3.70686352e-002, 3.79491523e-002, 4.05823253e-002,
          4.12749238e-002, 3.80023792e-002, 3.69601436e-002,
          4.77564894e-002, 5.81945442e-002, 3.75260077e-002,
          3.72924395e-002, 4.42756973e-002, 4.75858971e-002,
          4.13956307e-002, 3.70382853e-002, 4.72627990e-002,
          2.52464563e-001, 2.09705323e-001, 2.19956338e-001,
          2.83555567e-001, 2.84908921e-001, 2.13984489e-001,
          2.06183255e-001, 2.50355154e-001, 2.48666182e-001,
          2.07466498e-001, 2.25737646e-001, 2.98623919e-001,
          3.00305724e-001, 2.23634586e-001, 2.12880760e-001,
          2.50883609e-001 ]
      - [ 4.54987661e-004, 3.55260767e-004, 2.38829583e-004,
          4.01845551e-004, 6.32492302e-004, 3.37756035e-004,
          4.41204000e-004, 0., 4.42316785e-004, 0., 0., 0.,
          1.39872849e-004, 0., 0., 0., 1.54569792e-002, 1.64798833e-002,
          1.99582409e-002, 3.58982421e-002, 3.35698649e-002,
          1.61322448e-002, 1.35647384e-002, 1.14604002e-002,
          1.31337708e-002, 1.46169616e-002, 1.93402898e-002,
          3.21555026e-002, 3.79853100e-002, 2.54469384e-002,
          2.19641477e-002, 1.85702331e-002, 4.49322313e-002,
          3.43640633e-002, 3.59712578e-002, 3.70553844e-002,
          3.80987525e-002, 3.66925932e-002, 3.81396115e-002,
          3.81639600e-002, 4.74680364e-002, 3.74350101e-002,
          3.60833444e-002, 3.96676213e-002, 4.08736505e-002,
          3.77129540e-002, 3.77499759e-002, 3.59781012e-002,
          2.28548154e-001, 2.04818681e-001, 2.16750845e-001,
          3.02140653e-001, 2.86586225e-001, 2.14420646e-001,
          2.08284900e-001, 2.43617356e-001, 2.35535875e-001,
          2.19034955e-001, 2.35500321e-001, 3.20034802e-001,
          2.96154976e-001, 2.23947272e-001, 2.11272165e-001,
          2.45644271e-001 ]
      - [ 7.79623166e-003, 6.73439773e-003, 4.89861006e-003,
          9.26547591e-003, 9.22544301e-003, 5.16427448e-003,
          4.51494986e-003, 6.48122281e-003, 8.06855690e-003,
          5.41274203e-003, 6.67834515e-003, 8.29543453e-003,
          1.10008419e-002, 7.75663648e-003, 9.29742772e-003,
          7.55534833e-003, 2.11404264e-002, 1.35782212e-002,
          1.58339329e-002, 2.80482583e-002, 2.65505724e-002,
          1.76080968e-002, 2.00148486e-002, 5.59914298e-002,
          4.56270613e-002, 1.96555331e-002, 1.83040984e-002,
          2.31806394e-002, 2.69702319e-002, 1.53633235e-002,
          1.52771696e-002, 2.57950779e-002, 5.69996387e-002,
          3.47678587e-002, 3.53848264e-002, 5.32182120e-002,
          4.70149294e-002, 4.19636443e-002, 3.95577960e-002,
          4.68178615e-002, 5.04038334e-002, 3.47857065e-002,
          3.12145781e-002, 3.54207307e-002, 4.12998348e-002,
          4.45401408e-002, 3.49235907e-002, 4.12032828e-002,
          2.55541593e-001, 2.02144459e-001, 2.12757677e-001,
          3.17774326e-001, 2.75494426e-001, 2.06342876e-001,
          2.06078395e-001, 2.61830568e-001, 2.37873644e-001,
          2.04754576e-001, 2.19125271e-001, 3.09548318e-001,
          2.89168060e-001, 2.13965282e-001, 2.03492984e-001,
          2.52462089e-001 ]
      - [ 1.34180556e-003, 7.86892488e-004, 1.17218134e-003,
          1.43370975e-003, 1.64788426e-003, 1.40588719e-003,
          1.35865610e-003, 1.21934235e-003, 6.93487993e-004, 0.,
          8.09461926e-004, 3.48925561e-004, 1.50776049e-003,
          1.03976252e-003, 1.42140407e-003, 1.22477463e-003,
          1.49561884e-002, 2.21438035e-002, 2.48718914e-002,
          4.39377464e-002, 3.78915220e-002, 1.87715087e-002,
          1.61397401e-002, 1.57454833e-002, 2.01230273e-002,
          2.30229162e-002, 2.45919265e-002, 4.55617942e-002,
          3.78955975e-002, 1.88769046e-002, 1.53093264e-002,
          1.26197459e-002, 5.35670891e-002, 4.01822962e-002,
          4.13911156e-002, 4.57753204e-002, 4.75573689e-002,
          4.15804684e-002, 4.24094349e-002, 4.13560607e-002,
          5.60517982e-002, 4.45735455e-002, 4.53251712e-002,
          4.74991649e-002, 4.61550094e-002, 4.45870794e-002,
          4.33185101e-002, 4.28876020e-002, 2.27138296e-001,
          2.07771704e-001, 2.21068040e-001, 3.09467077e-001,
          2.77771354e-001, 2.10134238e-001, 2.06196234e-001,
          2.44276702e-001, 2.38455489e-001, 2.22017169e-001,
          2.36018747e-001, 3.16011608e-001, 2.77522713e-001,
          2.18426049e-001, 2.11963937e-001, 2.47526661e-001 ]
      - [ 0., 0., 0., 0., 0., 0., 0., 0., 0., 0., 0., 0., 0., 0., 0., 0.,
          8.18445440e-003, 8.82932730e-003, 1.16438186e-002,
          3.72322090e-002, 2.74458881e-002, 8.87434278e-003,
          6.10744487e-003, 5.11480216e-003, 6.09991373e-003,
          8.51620454e-003, 1.45093426e-002, 3.41200754e-002,
          3.32302488e-002, 1.64827872e-002, 1.45977661e-002,
          1.03389900e-002, 1.43603422e-002, 1.79898168e-003,
          8.17749416e-004, 1.06809835e-003, 1.10035483e-003,
          5.61328721e-004, 1.42879901e-003, 1.68605149e-002,
          1.61725655e-002, 4.68506292e-003, 1.27443590e-003,
          1.18526001e-003, 5.03361283e-004, 5.61711146e-004,
          1.59346696e-003, 1.88562274e-002, 1.86196744e-001,
          1.65375188e-001, 2.09643900e-001, 3.87716711e-001,
          3.29190463e-001, 1.94376737e-001, 1.68391317e-001,
          1.96638525e-001, 1.98838204e-001, 1.85716256e-001,
          2.31674522e-001, 3.93133283e-001, 3.45562905e-001,
          2.12727576e-001, 1.82202399e-001, 2.08639398e-001 ]
      - [ 5.88062452e-003, 3.81088909e-003, 2.94042076e-003,
          3.52831348e-003, 4.45780996e-003, 3.16999108e-003,
          3.92969791e-003, 3.54480743e-003, 3.21330712e-003,
          1.73388014e-003, 1.32262602e-003, 1.03388622e-003,
          3.03947693e-003, 4.11925558e-003, 4.40307893e-003,
          4.23403736e-003, 3.48293111e-002, 2.57256757e-002,
          2.48109214e-002, 2.80921794e-002, 3.18302847e-002,
          2.29373872e-002, 2.65597049e-002, 3.22663300e-002,
          3.62846442e-002, 2.70117093e-002, 2.29710899e-002,
          2.63165869e-002, 3.04450020e-002, 2.43289154e-002,
          2.90919580e-002, 3.51324640e-002, 5.39584123e-002,
          4.03554849e-002, 4.10319716e-002, 4.87289652e-002,
          4.89512049e-002, 4.41743210e-002, 4.24654521e-002,
          4.61702496e-002, 5.48344627e-002, 4.31270897e-002,
          4.23752181e-002, 4.83047925e-002, 4.76565175e-002,
          4.60286997e-002, 4.44451571e-002, 4.55405340e-002,
          2.34301135e-001, 2.08571121e-001, 2.14334875e-001,
          2.91577458e-001, 3.12649459e-001, 2.27732897e-001,
          2.11877808e-001, 2.27593869e-001, 2.35740632e-001,
          2.12860376e-001, 2.24321947e-001, 3.00133884e-001,
          3.02424371e-001, 2.22734123e-001, 2.08422229e-001,
          2.24925235e-001 ]
      - [ 0., 0., 0., 0., 0., 0., 0., 0., 0., 0., 0., 0., 0., 0., 0., 0.,
          1.59949269e-002, 1.45247960e-002, 1.96431577e-002,
          4.19266485e-002, 2.80561969e-002, 1.03466418e-002,
          8.22969060e-003, 6.39802916e-003, 9.56734549e-003,
          1.24633424e-002, 1.86173432e-002, 4.20545563e-002,
          3.20893563e-002, 1.61441006e-002, 1.45770134e-002,
          1.54474508e-002, 1.47048687e-003, 1.83164608e-003,
          1.51883822e-003, 9.74601018e-004, 2.65240553e-003,
          1.46012811e-003, 2.07087537e-003, 2.26534088e-003,
          3.66179342e-003, 3.29799647e-003, 3.13716521e-003,
          4.25863499e-003, 3.26329120e-003, 1.53118663e-003,
          1.92552642e-003, 8.41762114e-004, 1.91830546e-001,
          1.91224873e-001, 2.12356120e-001, 3.25806797e-001,
          3.08319539e-001, 2.55432278e-001, 2.08891824e-001,
          1.85946614e-001, 2.02615932e-001, 2.13913158e-001,
          2.40734875e-001, 3.30205321e-001, 3.30608398e-001,
          2.81953931e-001, 2.18625650e-001, 1.96616963e-001 ]
      - [ 2.95150559e-003, 2.60234880e-003, 3.95590020e-003,
          7.35838059e-003, 1.02006141e-002, 3.12986667e-003,
          2.72896001e-003, 1.15108956e-003, 1.39029662e-003,
          6.91509864e-004, 2.33925041e-003, 6.82506710e-003,
          1.23946695e-002, 5.14245452e-003, 2.40921578e-003,
          2.44779536e-003, 1.89434327e-002, 1.50098968e-002,
          1.77001730e-002, 3.49568315e-002, 5.04434817e-002,
          2.10278351e-002, 1.73267033e-002, 1.94512308e-002,
          2.06927359e-002, 1.79665145e-002, 1.94196701e-002,
          3.63270603e-002, 4.77867089e-002, 1.61600653e-002,
          1.48296300e-002, 1.72036439e-002, 5.44444807e-002,
          3.95337157e-002, 4.04267125e-002, 4.47159819e-002,
          4.87145521e-002, 4.40483689e-002, 4.15416360e-002,
          3.90088633e-002, 5.16549014e-002, 4.15138602e-002,
          4.60445248e-002, 5.03501929e-002, 4.35763076e-002,
          4.02559079e-002, 4.16504741e-002, 4.29839641e-002,
          2.20154509e-001, 2.02325240e-001, 2.12170526e-001,
          2.94725031e-001, 3.39535445e-001, 2.07756221e-001,
          2.00978503e-001, 2.18049005e-001, 2.30517209e-001,
          2.12882966e-001, 2.29888543e-001, 3.01885217e-001,
          3.33435535e-001, 2.19546735e-001, 2.05105349e-001,
          2.11720809e-001 ]
      - [ 8.74319449e-002, 5.84768392e-002, 3.87572385e-002,
          1.00110844e-001, 1.86122596e-001, 7.34571666e-002,
          7.05818459e-002, 8.54321867e-002, 1.17225371e-001,
          6.87290207e-002, 3.82799804e-002, 6.82464764e-002,
          1.43108085e-001, 8.33315402e-002, 6.71620741e-002,
          9.72638354e-002, 1.34778738e-001, 1.00971103e-001,
          8.07298198e-002, 1.00975774e-001, 1.86647162e-001,
          1.75822064e-001, 1.70076072e-001, 2.37527415e-001,
          2.15317115e-001, 1.44421354e-001, 1.12203389e-001,
          1.44197762e-001, 2.07840607e-001, 9.81486067e-002,
          1.05030000e-001, 1.37038946e-001, 5.32105193e-002,
          4.79143970e-002, 7.59060830e-002, 8.65659416e-002,
          9.41423476e-002, 7.36832619e-002, 6.44763038e-002,
          6.05036281e-002, 7.12767020e-002, 2.47595198e-002,
          3.44750285e-002, 7.52840191e-002, 7.54518136e-002,
          7.11173341e-002, 4.26743366e-002, 4.66358215e-002,
          2.63516486e-001, 1.75597787e-001, 1.79869175e-001,
          1.50477886e-001, 1.23073421e-001, 1.03048578e-001,
          1.25106588e-001, 1.65509313e-001, 1.60583124e-001,
          1.18811056e-001, 9.53490511e-002, 1.48781478e-001,
          1.49433017e-001, 1.14169203e-001, 1.47370085e-001,
          2.44155973e-001 ]
      - [ 3.77926193e-002, 2.36575026e-002, 3.01314816e-002,
          2.69018840e-002, 2.83554439e-002, 1.49864573e-002,
          2.69867219e-002, 2.28049848e-002, 3.79291363e-002,
          2.55386438e-002, 2.99408734e-002, 3.22876759e-002,
          4.44506221e-002, 3.39280814e-002, 3.04408502e-002,
          1.66235268e-002, 1.00832775e-001, 7.87115619e-002,
          3.69467773e-002, 6.24136627e-002, 9.04644802e-002,
          5.28293662e-002, 4.73296344e-002, 8.59086215e-002,
          8.82747248e-002, 5.80281466e-002, 5.47084063e-002,
          5.64462394e-002, 7.86055773e-002, 5.82417510e-002,
          6.94145039e-002, 8.56024772e-002, 9.92141962e-002,
          7.45718107e-002, 6.32674173e-002, 6.95212185e-002,
          8.34811106e-002, 6.58561289e-002, 6.79150745e-002,
          7.17592612e-002, 9.10441950e-002, 6.93002492e-002,
          6.77706525e-002, 9.58179608e-002, 9.47193131e-002,
          7.07428083e-002, 7.94238821e-002, 8.50340426e-002,
          2.28007287e-001, 1.98321372e-001, 2.03872070e-001,
          2.67312944e-001, 2.31814161e-001, 1.89048201e-001,
          2.19141439e-001, 2.41046846e-001, 2.18454540e-001,
          1.75763577e-001, 1.71061963e-001, 2.64641374e-001,
          2.81478584e-001, 2.03725979e-001, 2.22581044e-001,
          2.38009274e-001 ]
      - [ 5.80342226e-002, 0., 1.47715965e-002, 2.63912678e-002,
          6.59818277e-002, 1.37587879e-002, 1.66741610e-002,
          5.92993833e-002, 5.28738983e-002, 2.90404689e-002,
          1.09167965e-002, 1.30631447e-001, 8.63286182e-002,
          5.73192611e-002, 4.89405692e-002, 8.65965337e-002,
          1.21559940e-001, 1.02932945e-001, 1.04671359e-001,
          1.45206973e-001, 1.50194377e-001, 7.67861679e-002,
          8.39699656e-002, 1.27572998e-001, 1.28604591e-001,
          1.10429063e-001, 1.02514520e-001, 1.42285764e-001,
          1.46328434e-001, 8.39796364e-002, 8.11498165e-002,
          1.19355038e-001, 1.47676602e-001, 1.09382406e-001,
          4.82388474e-002, 6.31347969e-002, 9.26024765e-002,
          5.50615862e-002, 3.98875624e-002, 7.34341741e-002,
          1.15397379e-001, 1.21434361e-001, 1.09702028e-001,
          1.14195384e-001, 1.18815131e-001, 5.81138283e-002,
          6.80378079e-002, 6.37279749e-002, 2.65303642e-001,
          1.87202573e-001, 1.65797591e-001, 2.00626850e-001,
          1.53904617e-001, 1.40187845e-001, 1.69289172e-001,
          2.25156412e-001, 2.25337923e-001, 1.61657974e-001,
          1.56096846e-001, 1.94701687e-001, 2.00525701e-001,
          1.56963453e-001, 1.73506975e-001, 2.44838730e-001 ]
      - [ 1.17843941e-001, 3.74266617e-002, 1.14150485e-002,
          1.05661321e-002, 1.77286975e-002, 6.86413329e-003,
          1.60094090e-002, 4.51235957e-002, 4.41409945e-002,
          9.68366675e-003, 1.05870198e-002, 7.86807295e-003,
          1.67398881e-002, 1.16978502e-002, 2.58952565e-002,
          1.10971123e-001, 1.38770774e-001, 1.28040060e-001,
          9.25991982e-002, 1.28046900e-001, 1.42919242e-001,
          9.80595425e-002, 1.02861635e-001, 9.91378501e-002,
          9.82399061e-002, 1.12245545e-001, 1.22390687e-001,
          8.28198567e-002, 1.09318294e-001, 7.91733414e-002,
          8.24311376e-002, 1.21023990e-001, 1.50570974e-001,
          1.06881857e-001, 6.39027581e-002, 7.82540515e-002,
          8.16631466e-002, 7.70115405e-002, 8.20757896e-002,
          1.12436317e-001, 1.40552551e-001, 1.22728571e-001,
          1.13693297e-001, 6.15870245e-002, 5.16139269e-002,
          4.04554084e-002, 5.10405563e-002, 1.41381308e-001,
          2.18698159e-001, 1.69970304e-001, 1.95916399e-001,
          2.65600830e-001, 2.34207809e-001, 1.79702014e-001,
          1.62986755e-001, 1.68747917e-001, 1.44852325e-001,
          2.05827385e-001, 1.59859374e-001, 2.03917742e-001,
          2.30182827e-001, 1.72774255e-001, 1.91920772e-001,
          1.96668312e-001 ]
      - [ 6.91908002e-002, 0., 3.56017537e-002, 1.28649637e-001,
          1.27743721e-001, 7.31301531e-002, 8.30372348e-002,
          7.71032274e-002, 6.76689968e-002, 3.82308550e-002,
          7.28184953e-002, 1.33571625e-001, 9.81198102e-002,
          9.56068784e-002, 4.78908047e-002, 5.74350841e-002,
          6.16064891e-002, 5.06105907e-002, 7.17666596e-002,
          1.39023483e-001, 2.09206447e-001, 1.22025520e-001,
          1.53558120e-001, 2.46476606e-001, 1.57174215e-001,
          1.40868396e-001, 1.36943236e-001, 1.98673457e-001,
          1.78482816e-001, 5.92960157e-002, 4.81860936e-002,
          5.12428805e-002, 5.69812767e-002, 5.20279408e-002,
          8.16488639e-002, 1.20488234e-001, 1.24381557e-001,
          4.46553007e-002, 3.57349068e-002, 6.35779351e-002,
          9.89038944e-002, 2.87877563e-002, 5.14847636e-002,
          1.05206393e-001, 2.04304069e-001, 1.16932482e-001,
          9.12708715e-002, 6.12910502e-002, 2.15270206e-001,
          1.76264182e-001, 1.57055467e-001, 2.18557730e-001,
          2.07315147e-001, 7.46112615e-002, 6.96359798e-002,
          9.36282277e-002, 7.95250013e-002, 7.04072863e-002,
          9.52779800e-002, 1.86793804e-001, 2.39696294e-001,
          1.81417003e-001, 1.75153956e-001, 2.05846667e-001 ]
      - [ 3.21465433e-002, 1.82627141e-002, 1.75814312e-002,
          2.48884074e-002, 4.85834591e-002, 3.59262377e-002,
          1.40218269e-002, 1.85878575e-002, 4.60519120e-002,
          3.79873775e-002, 5.52002154e-002, 4.80809584e-002,
          5.41498959e-002, 3.95228527e-002, 2.59961132e-002,
          2.24403162e-002, 8.34161043e-002, 8.63416791e-002,
          8.97950158e-002, 1.07388064e-001, 1.30803108e-001,
          8.63589048e-002, 9.47105587e-002, 9.50787067e-002,
          1.00876853e-001, 9.67703611e-002, 1.06684752e-001,
          1.40303254e-001, 1.32196143e-001, 8.00274983e-002,
          5.93861230e-002, 8.40759501e-002, 7.82262236e-002,
          4.16823998e-002, 4.16014679e-002, 5.04720509e-002,
          5.83356693e-002, 6.67836070e-002, 7.88735896e-002,
          6.94854856e-002, 9.09206942e-002, 7.89632201e-002,
          7.42304921e-002, 1.16752312e-001, 1.15030877e-001,
          7.70825595e-002, 7.98307434e-002, 1.05173379e-001,
          2.43455842e-001, 2.03462809e-001, 2.00748667e-001,
          2.01189175e-001, 2.09953725e-001, 1.74754605e-001,
          1.86268985e-001, 2.49209106e-001, 2.39619836e-001,
          2.04914853e-001, 1.70229256e-001, 2.17517510e-001,
          2.38780156e-001, 1.74050540e-001, 1.97181955e-001,
          2.47369394e-001 ]
      - [ 2.80234329e-002, 1.31823821e-002, 1.01350648e-002,
          7.23306136e-003, 7.84163643e-003, 6.15287200e-003,
          1.45518072e-002, 2.59009320e-002, 3.01335659e-002,
          1.25367148e-002, 8.24843813e-003, 7.32820667e-003,
          1.09629342e-002, 8.35222937e-003, 1.64624527e-002,
          3.10079567e-002, 9.28239673e-002, 6.22265972e-002,
          4.63749953e-002, 5.72909415e-002, 8.33435729e-002,
          7.84299970e-002, 8.12980831e-002, 7.71170184e-002,
          8.63345489e-002, 7.13642165e-002, 5.66743463e-002,
          5.16845062e-002, 7.88196996e-002, 6.95913583e-002,
          6.96491674e-002, 6.69392943e-002, 1.18505031e-001,
          5.59150428e-002, 5.21989800e-002, 5.80017902e-002,
          5.20507172e-002, 5.52963093e-002, 6.33602142e-002,
          1.02996498e-001, 1.33559331e-001, 5.71096279e-002,
          4.39577140e-002, 4.94519211e-002, 5.66571392e-002,
          5.52543625e-002, 6.25973791e-002, 1.19219549e-001,
          2.32069716e-001, 2.02320412e-001, 1.89863548e-001,
          2.24729568e-001, 2.62067467e-001, 2.24430561e-001,
          2.36988530e-001, 2.51887292e-001, 2.05252573e-001,
          1.72728926e-001, 1.99164137e-001, 2.50689209e-001,
          2.72193283e-001, 2.05560401e-001, 2.18067288e-001,
          2.46997178e-001 ]
      - [ 1.33454591e-001, 7.96548948e-002, 7.91256651e-002,
          6.99947178e-002, 7.28400350e-002, 7.04754069e-002,
          5.60708418e-002, 1.04422607e-001, 8.49883929e-002,
          5.75464256e-002, 7.57497326e-002, 3.94830517e-002,
          6.57423437e-002, 9.11892653e-002, 7.96267167e-002,
          1.43803254e-001, 2.69757569e-001, 1.75729081e-001,
          1.58872768e-001, 1.51797190e-001, 2.36163095e-001,
          1.30824760e-001, 1.33090839e-001, 2.30957299e-001,
          2.52304584e-001, 1.31318226e-001, 1.06812276e-001,
          1.57683104e-001, 1.12019658e-001, 1.05237067e-001,
          1.43874839e-001, 1.80100024e-001, 5.49402051e-002,
          5.39620109e-002, 3.31487283e-002, 4.32735495e-002,
          5.20810448e-002, 7.95350373e-002, 1.06885530e-001,
          1.27145529e-001, 8.60718414e-002, 4.02523652e-002,
          1.20383818e-002, 1.77617576e-002, 2.52891593e-002,
          1.63815860e-002, 1.01854512e-002, 1.73123553e-002,
          1.83587313e-001, 1.60796553e-001, 1.62392750e-001,
          1.54239967e-001, 1.70743272e-001, 9.80984271e-002,
          1.22698270e-001, 1.91549823e-001, 1.65400282e-001,
          1.26873285e-001, 1.42856315e-001, 1.01809368e-001,
          9.37780291e-002, 8.33574608e-002, 1.08482249e-001,
          1.86420426e-001 ]
      - [ 4.46833251e-003, 4.87782899e-003, 3.12367198e-003,
          4.51363856e-003, 7.73249473e-003, 5.45065012e-003,
          6.68071955e-003, 4.05162992e-003, 4.41061985e-003,
          4.28710319e-003, 3.64311878e-003, 3.47354449e-003,
          4.11790889e-003, 2.92355078e-003, 4.82827472e-003,
          4.58353711e-003, 2.62518432e-002, 3.24752219e-002,
          4.28448990e-002, 6.98118731e-002, 8.14009085e-002,
          3.96682359e-002, 4.38064039e-002, 6.02924973e-002,
          8.40427354e-002, 5.70343025e-002, 4.82300185e-002,
          6.43232018e-002, 7.42137581e-002, 3.69712487e-002,
          3.06691267e-002, 2.45869160e-002, 6.69149682e-002,
          3.92287746e-002, 3.75238806e-002, 1.26515865e-001,
          6.98864385e-002, 3.28614078e-002, 4.26606648e-002,
          9.37549919e-002, 7.04615116e-002, 3.89807336e-002,
          5.88007607e-002, 1.23186968e-001, 9.93303433e-002,
          5.52815162e-002, 6.35242164e-002, 8.53305086e-002,
          3.05797428e-001, 2.28240237e-001, 1.96500108e-001,
          2.25128084e-001, 2.14592949e-001, 1.72484487e-001,
          2.01465517e-001, 2.62515366e-001, 2.90297955e-001,
          2.16909289e-001, 1.88526198e-001, 2.40745381e-001,
          2.30874494e-001, 1.86938003e-001, 2.07430616e-001,
          2.94230342e-001 ]
      - [ 2.01540634e-001, 2.33585417e-001, 1.58056304e-001,
          1.30354777e-001, 1.88075364e-001, 1.24843270e-001,
          1.41146526e-001, 1.13867112e-001, 1.33112192e-001,
          1.30041972e-001, 9.29635167e-002, 5.02099730e-002,
          1.23232812e-001, 9.02415216e-002, 7.60346577e-002,
          1.12269059e-001, 2.83442944e-001, 1.86638504e-001,
          1.80452839e-001, 1.32787049e-001, 2.20036477e-001,
          1.74925819e-001, 2.03055635e-001, 2.38237634e-001,
          2.80699164e-001, 1.46529257e-001, 1.22033685e-001,
          2.03023598e-001, 2.05882415e-001, 1.07693069e-001,
          1.29858509e-001, 3.00989360e-001, 0., 0., 0., 0.,
          9.22992975e-002, 0., 0., 0., 0., 0., 0., 0., 8.27472284e-002,
          0., 0., 0., 0., 0., 0., 0., 1.03869714e-001, 0., 0., 0., 0.,
          0., 0., 0., 7.17271641e-002, 0., 0., 0. ]
      - [ 8.52103457e-002, 4.23322618e-002, 3.06304414e-002,
          4.12722342e-002, 5.83222955e-002, 3.28677669e-002,
          4.35835384e-002, 7.35372454e-002, 5.70820831e-002,
          1.07663281e-001, 5.83050437e-002, 3.90001386e-002,
          1.53270895e-002, 9.36487410e-003, 1.44788520e-002,
          5.70047870e-002, 8.56474787e-002, 7.61865303e-002,
          9.29664224e-002, 1.78245902e-001, 1.65745363e-001,
          8.79482552e-002, 7.57856369e-002, 1.18126132e-001,
          1.88230067e-001, 1.91252425e-001, 1.21319637e-001,
          1.23925291e-001, 1.41028598e-001, 7.81206563e-002,
          7.81349465e-002, 1.04537144e-001, 8.23335424e-002,
          5.88737428e-002, 8.12097937e-002, 1.00294717e-001,
          7.84589797e-002, 7.33486265e-002, 6.92724511e-002,
          7.23451674e-002, 1.08642027e-001, 8.70018825e-002,
          9.91194621e-002, 1.40985683e-001, 1.61389485e-001,
          1.08132638e-001, 1.01547606e-001, 6.41037747e-002,
          2.13461056e-001, 1.71833828e-001, 1.45503908e-001,
          2.36205071e-001, 1.92851067e-001, 1.53884888e-001,
          1.92517638e-001, 2.16360956e-001, 2.04174787e-001,
          1.65711656e-001, 1.52121082e-001, 1.67341352e-001,
          1.72438532e-001, 1.51086316e-001, 1.79119542e-001,
          2.18984276e-001 ]
      - [ 2.98391338e-002, 5.25337085e-002, 1.01805113e-001,
          1.30151287e-001, 6.96578324e-002, 5.64655522e-003,
          6.57866662e-003, 5.65149868e-003, 1.66113377e-002,
          1.25592519e-002, 1.50106112e-002, 7.86372088e-003,
          1.42765669e-002, 4.47040843e-003, 1.33521985e-002, 0.,
          1.33932918e-001, 1.12712391e-001, 7.65857846e-002,
          9.68207195e-002, 1.41082659e-001, 6.90674931e-002,
          7.26763308e-002, 1.55766860e-001, 1.60192981e-001,
          7.61580840e-002, 8.61904025e-002, 1.06653899e-001,
          1.79145083e-001, 1.08886033e-001, 1.01850845e-001,
          1.31864712e-001, 1.11652203e-001, 6.21803328e-002,
          5.40799908e-002, 8.46551359e-002, 7.14412928e-002,
          4.97747064e-002, 5.08242808e-002, 1.13625050e-001,
          1.25309080e-001, 7.58135617e-002, 6.32571429e-002,
          9.42125171e-002, 1.20916888e-001, 7.45350569e-002,
          1.05110608e-001, 1.17817163e-001, 2.08229288e-001,
          1.56653225e-001, 1.30573705e-001, 1.98579147e-001,
          2.41590157e-001, 1.82907194e-001, 1.96305916e-001,
          2.19729066e-001, 2.28684351e-001, 1.92572176e-001,
          1.99374378e-001, 2.30974197e-001, 1.73919275e-001,
          1.65836841e-001, 1.65571168e-001, 2.03198627e-001 ]
      - [ 1.11791007e-001, 6.29610494e-002, 6.90717474e-002,
          4.59568724e-002, 3.07499692e-002, 3.49334963e-002,
          3.14043202e-002, 1.10301889e-001, 1.22107968e-001,
          5.27368300e-002, 3.60918790e-002, 1.78421400e-002,
          4.04650234e-002, 3.11629232e-002, 4.20435369e-002,
          1.09477952e-001, 1.79463938e-001, 1.37461469e-001,
          1.23424865e-001, 2.15240955e-001, 2.12528154e-001,
          1.28290057e-001, 1.51165441e-001, 2.01384842e-001,
          2.06227392e-001, 1.61434755e-001, 1.11394830e-001,
          1.33969203e-001, 1.91515788e-001, 1.29792839e-001,
          1.36574775e-001, 1.73878431e-001, 5.21086752e-002,
          1.80703849e-002, 1.88635085e-002, 6.76400661e-002,
          7.95210227e-002, 4.82906550e-002, 5.84237650e-002,
          1.18292511e-001, 1.16630688e-001, 2.24975348e-002,
          1.82565711e-002, 4.74740826e-002, 5.16842455e-002,
          1.25354324e-002, 2.16818750e-002, 4.33111191e-002,
          2.13477969e-001, 1.67764187e-001, 1.55659392e-001,
          1.94378719e-001, 1.79845527e-001, 1.20480187e-001,
          1.49392486e-001, 2.03972250e-001, 1.80249155e-001,
          1.29369125e-001, 1.11266509e-001, 1.30957782e-001,
          1.38001606e-001, 1.27111524e-001, 1.43865794e-001,
          2.22557381e-001 ]
      - [ 1.63550815e-003, 1.39312458e-003, 1.31715951e-003,
          1.79683266e-003, 1.66293723e-003, 7.42801058e-004,
          1.19428127e-003, 1.64074649e-003, 7.04061589e-004,
          8.59972672e-004, 7.97855144e-004, 9.77680902e-004,
          9.69064480e-004, 1.24978507e-003, 9.15079261e-004,
          8.76675651e-004, 2.17016172e-002, 1.76036991e-002,
          2.06241347e-002, 4.18285131e-002, 3.49922962e-002,
          1.69760343e-002, 1.64865348e-002, 3.04633602e-002,
          2.37919018e-002, 1.82971936e-002, 2.07172520e-002,
          3.68087217e-002, 4.15426902e-002, 2.11144276e-002,
          1.79319251e-002, 2.57922523e-002, 5.18531129e-002,
          3.94050814e-002, 4.02196459e-002, 4.26430181e-002,
          4.60882708e-002, 4.35733199e-002, 4.28114198e-002,
          4.21456210e-002, 5.16685024e-002, 4.06543650e-002,
          4.05841991e-002, 4.57262583e-002, 4.67080921e-002,
          4.21478413e-002, 3.98536511e-002, 4.11194861e-002,
          2.28143260e-001, 2.01932698e-001, 2.15137661e-001,
          3.02933037e-001, 2.87144423e-001, 2.07373738e-001,
          2.02892423e-001, 2.49452963e-001, 2.38742262e-001,
          2.16366366e-001, 2.32970983e-001, 3.16463888e-001,
          2.99248189e-001, 2.16798440e-001, 2.07978010e-001,
          2.45127514e-001 ]
      - [ 9.38559547e-002, 3.37618142e-002, 3.14641856e-002,
          1.48881692e-002, 1.67876799e-002, 2.40648594e-002,
          4.47704270e-002, 8.25849846e-002, 5.35144471e-002,
          1.66584570e-002, 8.69340263e-003, 1.95693970e-002,
          2.05720682e-002, 1.81577504e-002, 9.56840254e-003,
          4.77880947e-002, 1.17672980e-001, 7.55810812e-002,
          6.34649023e-002, 8.72745141e-002, 1.23606652e-001,
          8.73729065e-002, 8.19000751e-002, 1.22309953e-001,
          1.47921845e-001, 9.76255685e-002, 7.07382336e-002,
          8.65714401e-002, 1.09996997e-001, 6.76690787e-002,
          8.73356983e-002, 1.20614953e-001, 5.89414947e-002,
          5.21407314e-002, 4.68330905e-002, 5.60773946e-002,
          5.92836589e-002, 4.34878916e-002, 4.85194959e-002,
          5.05538732e-002, 5.80337457e-002, 5.08863479e-002,
          5.47782220e-002, 5.40464409e-002, 5.49335331e-002,
          4.62447181e-002, 4.27831374e-002, 4.43258621e-002,
          2.23165646e-001, 1.84746310e-001, 1.95982993e-001,
          2.87526190e-001, 2.82175153e-001, 1.99439242e-001,
          2.16031030e-001, 2.13658229e-001, 1.97326928e-001,
          1.64915398e-001, 1.70241788e-001, 2.15108871e-001,
          2.72257030e-001, 2.01189458e-001, 2.14142084e-001,
          2.29392588e-001 ]
      - [ 1.25486478e-001, 1.02624014e-001, 8.64911675e-002,
          9.65887085e-002, 9.71907526e-002, 4.09209467e-002,
          3.53730135e-002, 3.32492404e-002, 3.33604366e-002,
          2.93236952e-002, 4.68371324e-002, 4.65037897e-002,
          4.93922457e-002, 6.00008331e-002, 1.13518193e-001,
          1.21647350e-001, 1.86043382e-001, 1.76690504e-001,
          1.29206344e-001, 2.27719292e-001, 2.42355689e-001,
          1.57041088e-001, 1.46853134e-001, 1.51269123e-001,
          1.46018222e-001, 1.26828074e-001, 1.48159876e-001,
          1.18156023e-001, 1.24464817e-001, 1.41581401e-001,
          1.36719868e-001, 1.37667120e-001, 5.15247993e-002,
          4.44067791e-002, 2.56817378e-002, 4.64277454e-002,
          6.53065816e-002, 9.87498909e-002, 1.36304036e-001,
          1.50707036e-001, 9.30655226e-002, 3.73936072e-002,
          4.92461585e-002, 6.46705180e-002, 5.51728383e-002,
          7.60884508e-002, 3.95554863e-002, 3.47693600e-002,
          1.62429497e-001, 1.24640092e-001, 1.35726109e-001,
          2.15246662e-001, 2.05139875e-001, 1.32169291e-001,
          1.65481642e-001, 2.28030115e-001, 1.85264379e-001,
          1.18289515e-001, 1.23160854e-001, 9.37801972e-002,
          1.15347281e-001, 1.20811291e-001, 1.43386081e-001,
          1.93094462e-001 ]
      - [ 4.02977914e-002, 2.80519929e-002, 3.03878393e-002,
          3.43706720e-002, 3.90714034e-002, 1.70254242e-002,
          2.82506701e-002, 3.15141343e-002, 3.27889808e-002,
          2.69854572e-002, 2.68524587e-002, 4.55664955e-002,
          5.04505560e-002, 1.29138986e-002, 2.75737233e-002,
          2.13441588e-002, 1.02006808e-001, 8.82810280e-002,
          9.71555561e-002, 1.58777222e-001, 1.58659205e-001,
          1.50084972e-001, 1.43522158e-001, 1.64609522e-001,
          1.59262806e-001, 1.36372894e-001, 1.31825477e-001,
          1.07129574e-001, 1.11214124e-001, 8.53014737e-002,
          8.07388425e-002, 9.44764912e-002, 1.60274372e-001,
          1.13458194e-001, 8.54875669e-002, 1.00343935e-001,
          7.56081715e-002, 7.61881620e-002, 6.56495392e-002,
          1.24813370e-001, 1.21546134e-001, 4.06819768e-002,
          4.67863940e-002, 7.92243779e-002, 5.96986637e-002,
          7.93838352e-002, 9.91672203e-002, 1.03087328e-001,
          2.43553609e-001, 2.12543100e-001, 2.14364618e-001,
          2.31015697e-001, 1.49994269e-001, 1.64934710e-001,
          1.56821266e-001, 1.84978366e-001, 1.72538340e-001,
          1.47832632e-001, 1.44109666e-001, 1.58238158e-001,
          1.94766447e-001, 1.96052432e-001, 2.03138009e-001,
          2.39250124e-001 ]
      - [ 3.97102050e-002, 3.61456536e-002, 3.37384231e-002,
          2.06958391e-002, 3.20754200e-002, 1.70851611e-002,
          1.51680391e-002, 1.66294817e-002, 2.59650145e-002,
          2.77351383e-002, 3.14225256e-002, 3.15780602e-002,
          2.60454491e-002, 2.88957879e-002, 2.65870728e-002,
          1.97989102e-002, 1.18625700e-001, 1.17300674e-001,
          8.91223177e-002, 1.48973569e-001, 2.39047483e-001,
          8.61844048e-002, 5.44427410e-002, 5.47771193e-002,
          7.37994239e-002, 1.06289878e-001, 1.03046268e-001,
          1.50935769e-001, 1.87825873e-001, 8.28788355e-002,
          6.89631850e-002, 9.08070356e-002, 8.83313715e-002,
          7.14940652e-002, 6.02620430e-002, 6.39527068e-002,
          5.74477166e-002, 5.36800511e-002, 6.35174140e-002,
          6.48349673e-002, 8.84525180e-002, 7.12483004e-002,
          5.57529777e-002, 5.00945598e-002, 5.22870682e-002,
          5.42274266e-002, 6.15031682e-002, 7.11535886e-002,
          2.20616013e-001, 1.75003693e-001, 1.71349496e-001,
          2.09056944e-001, 2.36618876e-001, 1.92519650e-001,
          2.27653801e-001, 2.57689476e-001, 2.58103102e-001,
          2.07491517e-001, 1.57376200e-001, 1.60119966e-001,
          2.00454071e-001, 1.73848897e-001, 1.98517725e-001,
          2.28597015e-001 ]
      - [ 4.77911346e-002, 2.33173165e-002, 3.35169025e-002,
          2.65108459e-002, 4.17621545e-002, 2.58673597e-002,
          2.95536537e-002, 2.41023358e-002, 3.69203091e-002,
          2.79560052e-002, 2.62488276e-002, 3.09064034e-002,
          3.42054479e-002, 2.64516622e-002, 2.05531809e-002,
          3.57032306e-002, 1.70665339e-001, 1.06405385e-001,
          7.07949474e-002, 1.22756787e-001, 1.50515303e-001,
          8.78988504e-002, 1.12068012e-001, 1.67795718e-001,
          1.61434859e-001, 1.11329697e-001, 9.38961729e-002,
          9.95462611e-002, 1.33019522e-001, 7.33156949e-002,
          6.87274709e-002, 1.21650748e-001, 4.53119949e-002,
          4.80599627e-002, 3.96046229e-002, 4.82797213e-002,
          4.78713587e-002, 5.46828248e-002, 5.18041067e-002,
          5.46291806e-002, 6.66119531e-002, 4.77734618e-002,
          5.26903160e-002, 6.26470894e-002, 5.57691678e-002,
          4.46496531e-002, 3.40668559e-002, 2.64884699e-002,
          2.62494922e-001, 2.03656465e-001, 1.81970656e-001,
          2.29049534e-001, 2.38779530e-001, 1.93399712e-001,
          1.81716427e-001, 2.38993496e-001, 2.62560070e-001,
          2.03973413e-001, 1.58740893e-001, 1.59792796e-001,
          1.99356452e-001, 1.66718021e-001, 1.86748192e-001,
          2.62531161e-001 ]
      - [ 3.74233313e-002, 3.18554938e-002, 2.30404940e-002,
          2.18795314e-002, 2.93365624e-002, 1.94550250e-002,
          2.42226962e-002, 2.59153750e-002, 3.83208208e-002,
          3.59651409e-002, 3.23265493e-002, 2.77348198e-002,
          3.38397361e-002, 1.98427215e-002, 3.01855654e-002,
          3.77228744e-002, 8.30596462e-002, 9.72073823e-002,
          8.10669810e-002, 1.60458729e-001, 2.41869524e-001,
          1.48624197e-001, 1.97110295e-001, 2.82779276e-001,
          2.70947695e-001, 2.20029011e-001, 9.84794497e-002,
          1.40302598e-001, 2.11197481e-001, 9.51514989e-002,
          9.32762548e-002, 7.81648010e-002, 9.93012711e-002,
          4.04940546e-002, 4.42049243e-002, 4.52248715e-002,
          3.89453955e-002, 2.58773677e-002, 4.32630442e-002,
          5.95910326e-002, 1.54083893e-001, 1.11738600e-001,
          6.09406009e-002, 8.30774009e-002, 5.28351404e-002,
          7.78529793e-002, 1.04644403e-001, 1.18543759e-001,
          1.98273405e-001, 1.63280636e-001, 1.55715257e-001,
          1.57525808e-001, 1.78466111e-001, 1.57448694e-001,
          1.77831084e-001, 1.86896235e-001, 2.23895922e-001,
          1.45486757e-001, 1.12133875e-001, 1.05452016e-001,
          1.28221154e-001, 1.16366200e-001, 1.44772172e-001,
          1.72946513e-001 ]
      - [ 6.45629093e-002, 3.03397570e-002, 2.65441500e-002,
          3.78426611e-002, 4.37291525e-002, 2.79848091e-002,
          3.15310843e-002, 8.08260292e-002, 1.18791342e-001,
          7.30069652e-002, 8.07946622e-002, 9.89314839e-002,
          7.82650709e-002, 4.69935313e-002, 4.33574244e-002,
          4.74726669e-002, 1.26933351e-001, 9.85726342e-002,
          8.55932236e-002, 1.13802552e-001, 1.34527400e-001,
          9.62982029e-002, 1.18643709e-001, 1.96804062e-001,
          1.61988318e-001, 1.12367846e-001, 1.09841883e-001,
          1.31564125e-001, 1.43549100e-001, 9.27559808e-002,
          1.04262799e-001, 1.46848798e-001, 1.85333773e-001,
          3.08536217e-002, 2.46840809e-002, 1.50144929e-002,
          3.54858637e-002, 3.56672108e-002, 5.53360656e-002,
          1.45067632e-001, 1.55022040e-001, 4.19758223e-002,
          4.09531258e-002, 3.42402533e-002, 5.71100302e-002,
          6.85252249e-002, 4.42354791e-002, 1.94401816e-001,
          2.57880837e-001, 1.69404626e-001, 1.48271382e-001,
          1.63341716e-001, 1.50559321e-001, 1.22733131e-001,
          1.71438292e-001, 2.25445569e-001, 2.48466924e-001,
          1.63088471e-001, 1.27973422e-001, 1.24306411e-001,
          1.68243095e-001, 1.40132621e-001, 1.82889178e-001,
          2.75073856e-001 ]
      - [ 8.18124264e-002, 1.48613080e-002, 6.22737268e-003,
          3.50042572e-003, 1.40272286e-002, 9.28715430e-003,
          1.30788945e-002, 5.61763272e-002, 7.92766809e-002,
          1.34482803e-002, 1.98634453e-002, 4.66480777e-002,
          3.37329321e-002, 1.87087376e-002, 5.36286011e-002,
          1.00771606e-001, 1.38491035e-001, 6.99486509e-002,
          9.27021354e-002, 1.67581379e-001, 1.48130178e-001,
          8.06063786e-002, 7.96243027e-002, 1.54957756e-001,
          1.73009798e-001, 9.52237025e-002, 9.31696445e-002,
          1.63915530e-001, 1.34075567e-001, 8.32952410e-002,
          5.53935543e-002, 1.30424052e-001, 4.10489105e-002,
          4.20890599e-002, 3.59099582e-002, 5.99863380e-002,
          6.43521473e-002, 5.39101586e-002, 5.76295331e-002,
          6.55866340e-002, 5.56893386e-002, 4.70949821e-002,
          5.72922193e-002, 1.26737237e-001, 1.38158843e-001,
          4.95515876e-002, 6.89222291e-002, 5.85806258e-002,
          2.45795578e-001, 2.04679430e-001, 1.71344742e-001,
          2.14881793e-001, 2.15572760e-001, 1.27866760e-001,
          1.50604114e-001, 2.17732549e-001, 2.47501060e-001,
          2.00834185e-001, 1.78144738e-001, 2.13070527e-001,
          1.99799195e-001, 1.45568565e-001, 1.92060128e-001,
          2.48810053e-001 ]
      - [ 6.10521398e-002, 3.03959772e-002, 3.98665853e-002,
          7.45849907e-002, 9.98902321e-002, 3.85854654e-002,
          4.25659828e-002, 5.13410904e-002, 9.09610838e-002,
          1.07635632e-001, 8.24841410e-002, 5.80883622e-002,
          4.02550139e-002, 2.79147048e-002, 2.30082218e-002,
          6.87775984e-002, 1.67709425e-001, 1.10862583e-001,
          1.31032333e-001, 1.63504064e-001, 1.93375856e-001,
          1.49843216e-001, 1.24651872e-001, 2.04958111e-001,
          1.45730123e-001, 1.18087471e-001, 9.66503099e-002,
          8.17553028e-002, 1.33056551e-001, 9.31912214e-002,
          1.20414540e-001, 1.12709805e-001, 1.23873487e-001,
          1.15008265e-001, 1.25988349e-001, 1.65687785e-001,
          1.55770913e-001, 7.36352056e-002, 9.61011872e-002,
          9.52559486e-002, 7.67981708e-002, 4.93787564e-002,
          4.81023565e-002, 5.35190143e-002, 7.75613487e-002,
          7.93986470e-002, 1.03099808e-001, 8.87205079e-002,
          2.15506107e-001, 2.02548072e-001, 1.63002282e-001,
          2.16071606e-001, 2.14287907e-001, 1.53928876e-001,
          1.53112128e-001, 1.60057470e-001, 1.87997431e-001,
          1.10428602e-001, 9.72827598e-002, 9.22683254e-002,
          1.71486452e-001, 1.72098726e-001, 1.48071244e-001,
          1.94881514e-001 ]
      - [ 6.53023943e-002, 3.78066190e-002, 1.33707486e-002,
          3.43596861e-002, 4.68532965e-002, 5.36009334e-002,
          4.88066301e-002, 8.11595991e-002, 1.34885773e-001,
          8.68881196e-002, 9.68451351e-002, 1.50296941e-001,
          1.46464452e-001, 5.41372597e-002, 6.70820400e-002,
          5.60285337e-002, 1.24155380e-001, 1.03873976e-001,
          1.04617625e-001, 2.24968642e-001, 2.08240181e-001,
          1.65190265e-001, 1.93877801e-001, 1.83305159e-001,
          1.38719440e-001, 1.41643658e-001, 1.34804696e-001,
          1.53657600e-001, 2.23793328e-001, 1.04273371e-001,
          9.37471539e-002, 1.06226519e-001, 5.78232333e-002,
          1.48246419e-002, 2.76029203e-002, 2.47925092e-002,
          3.72832716e-002, 7.95557201e-002, 1.14468522e-001,
          1.22522995e-001, 1.22982614e-001, 5.24483062e-002,
          2.54234038e-002, 4.01715823e-002, 4.43809554e-002,
          4.83728275e-002, 6.62014857e-002, 6.50258511e-002,
          2.55245388e-001, 2.18859464e-001, 1.50056958e-001,
          1.74838901e-001, 1.74995244e-001, 1.06156968e-001,
          1.48662925e-001, 1.21401697e-001, 9.88074467e-002,
          7.33523369e-002, 1.04353361e-001, 1.27180859e-001,
          1.56162739e-001, 1.30086914e-001, 2.00155407e-001,
          2.34903142e-001 ]
      - [ 9.86930355e-003, 9.53924283e-003, 1.51229510e-002,
          4.02584411e-002, 4.88462746e-002, 1.37649560e-002,
          7.90961087e-003, 4.93250834e-003, 1.19720763e-002,
          9.33275558e-003, 8.72970745e-003, 6.85104914e-003,
          7.50841759e-003, 4.11608955e-003, 6.92341523e-003,
          7.79884728e-003, 3.26301008e-002, 4.20543589e-002,
          6.08160235e-002, 1.01979390e-001, 8.93059596e-002,
          3.37480679e-002, 3.39377634e-002, 2.63512544e-002,
          3.31868455e-002, 4.06916998e-002, 6.26375750e-002,
          1.06514156e-001, 1.00187533e-001, 3.83467786e-002,
          3.48260328e-002, 3.01930346e-002, 8.45026001e-002,
          4.64933850e-002, 5.27758487e-002, 9.56908315e-002,
          9.45821404e-002, 4.81675789e-002, 5.19294702e-002,
          5.31070419e-002, 7.92922378e-002, 6.23144172e-002,
          4.42012213e-002, 1.03615478e-001, 1.46153420e-001,
          5.71960732e-002, 5.44680953e-002, 7.21560568e-002,
          2.64826536e-001, 2.22763389e-001, 2.11721897e-001,
          2.42239013e-001, 2.29278252e-001, 1.80633515e-001,
          2.14113444e-001, 2.38152713e-001, 2.47651011e-001,
          2.19168991e-001, 2.26019815e-001, 2.85659254e-001,
          2.43648529e-001, 1.87678158e-001, 2.03283042e-001,
          2.29206264e-001 ]
      - [ 4.21842001e-002, 3.88510376e-002, 3.74887735e-002,
          4.20645326e-002, 5.04980870e-002, 3.72530371e-002,
          3.86184864e-002, 2.17989441e-002, 2.60188077e-002,
          1.92461740e-002, 1.94806084e-002, 2.99429540e-002,
          4.47987765e-002, 4.11720350e-002, 4.28307205e-002,
          3.94278280e-002, 1.01629838e-001, 1.05766550e-001,
          1.01278581e-001, 1.45676494e-001, 1.45108491e-001,
          7.83563927e-002, 5.26086167e-002, 4.74830009e-002,
          5.55831864e-002, 6.93720505e-002, 8.40285420e-002,
          1.47431090e-001, 1.24686792e-001, 8.65506902e-002,
          7.88820386e-002, 7.92167038e-002, 1.11276172e-001,
          8.14643055e-002, 8.27386305e-002, 1.02912396e-001,
          9.51930434e-002, 8.61753076e-002, 1.13511667e-001,
          1.16441607e-001, 9.83589590e-002, 7.10778162e-002,
          7.84441009e-002, 8.08921978e-002, 8.32432434e-002,
          8.17332268e-002, 1.04515091e-001, 9.58482176e-002,
          1.94948256e-001, 1.89472854e-001, 1.86753735e-001,
          3.13023418e-001, 2.40105927e-001, 1.69835597e-001,
          1.73748568e-001, 2.15339884e-001, 2.02824622e-001,
          1.90284237e-001, 1.70518145e-001, 2.17240229e-001,
          2.22090632e-001, 1.89926878e-001, 1.92749575e-001,
          1.85080931e-001 ]
      - [ 5.96118458e-002, 3.52938958e-002, 4.17575762e-002,
          2.53285002e-002, 7.67290145e-002, 7.14126304e-002,
          2.92502586e-002, 5.73829375e-002, 7.12788403e-002,
          2.79565305e-002, 4.44983169e-002, 4.97523956e-002,
          6.72231615e-002, 2.92558875e-002, 1.25521356e-002,
          2.77367514e-002, 1.20393157e-001, 8.28575715e-002,
          9.22362283e-002, 1.36937097e-001, 1.23766012e-001,
          8.92348811e-002, 1.07853837e-001, 1.40894890e-001,
          1.00467555e-001, 1.09503515e-001, 1.07288465e-001,
          1.51644707e-001, 1.31522432e-001, 7.49363080e-002,
          9.72290337e-002, 1.42830878e-001, 1.16960444e-001,
          6.63987026e-002, 6.81879297e-002, 7.80198574e-002,
          9.63428169e-002, 4.73634005e-002, 5.09677641e-002,
          1.24931186e-001, 9.03943256e-002, 1.85658000e-002,
          2.46233828e-002, 5.05150743e-002, 1.21282816e-001,
          5.17032743e-002, 5.02297729e-002, 1.25017494e-001,
          2.64935613e-001, 1.70668259e-001, 1.53477028e-001,
          2.09107712e-001, 1.85807213e-001, 1.42383948e-001,
          1.54725015e-001, 2.46928945e-001, 2.32985631e-001,
          1.74592018e-001, 1.53028846e-001, 2.16110721e-001,
          1.96933404e-001, 1.59754157e-001, 1.96671069e-001,
          2.79948384e-001 ]
      - [ 1.06172543e-002, 8.48472677e-003, 1.29786832e-002,
          1.86703987e-002, 1.96166001e-002, 6.17097598e-003,
          8.81500635e-003, 8.22748151e-003, 1.57529246e-002,
          1.24508105e-002, 1.26708932e-002, 1.48089221e-002,
          2.44247150e-002, 1.47816325e-002, 6.61396980e-003,
          7.20569491e-003, 4.56448235e-002, 3.24661322e-002,
          3.50420475e-002, 9.37085301e-002, 9.55199152e-002,
          3.64215113e-002, 3.77056375e-002, 5.39217964e-002,
          4.10781689e-002, 3.92012373e-002, 4.21629772e-002,
          7.65215382e-002, 8.38670582e-002, 3.45247090e-002,
          2.41871234e-002, 3.06527745e-002, 9.58745331e-002,
          5.71529940e-002, 7.07972944e-002, 1.16813608e-001,
          9.70896482e-002, 5.64649962e-002, 5.15762307e-002,
          8.13671276e-002, 9.00053084e-002, 4.36469428e-002,
          4.31294516e-002, 8.27712938e-002, 8.15580264e-002,
          4.74765487e-002, 4.96712551e-002, 8.26009959e-002,
          2.16201901e-001, 1.66657910e-001, 1.81598529e-001,
          3.20483178e-001, 3.30720872e-001, 2.07270563e-001,
          1.87661693e-001, 2.26119116e-001, 1.92946464e-001,
          1.57979071e-001, 1.88241273e-001, 3.03003132e-001,
          3.04087371e-001, 2.03594595e-001, 1.93835095e-001,
          2.20825776e-001 ]
      - [ 2.76134592e-002, 1.08816279e-002, 1.00077046e-002,
          1.22372834e-002, 1.70585625e-002, 9.41650849e-003,
          9.00248159e-003, 7.55628338e-003, 1.69862807e-002,
          1.87204424e-002, 1.33083966e-002, 1.91948209e-002,
          2.52594370e-002, 2.10405830e-002, 1.58360414e-002,
          1.60758737e-002, 1.40097737e-001, 1.49556682e-001,
          8.75333846e-002, 4.81969677e-002, 9.65795070e-002,
          4.47217114e-002, 6.07811473e-002, 6.69624135e-002,
          6.00260831e-002, 9.74822491e-002, 1.10855766e-001,
          8.94328058e-002, 1.59176156e-001, 8.11937824e-002,
          7.38601461e-002, 9.64105055e-002, 9.32285264e-002,
          3.85761261e-002, 3.21817286e-002, 2.19886992e-002,
          2.69311685e-002, 3.18868794e-002, 3.24095637e-002,
          4.98841740e-002, 7.98942968e-002, 7.32436925e-002,
          9.09708738e-002, 1.01164185e-001, 9.41875651e-002,
          8.39970112e-002, 7.63939843e-002, 8.60947669e-002,
          2.08241150e-001, 1.51159406e-001, 1.43035039e-001,
          1.66277707e-001, 2.17436388e-001, 1.57083735e-001,
          2.14308217e-001, 3.15415740e-001, 2.29415357e-001,
          1.91910654e-001, 1.71055868e-001, 2.23772421e-001,
          2.85766900e-001, 1.90401390e-001, 2.06603840e-001,
          3.26374024e-001 ]
      - [ 2.06188578e-002, 5.62626915e-003, 8.12400784e-003,
          9.18159820e-003, 2.16620974e-002, 1.63741186e-002,
          1.61944516e-002, 3.27953659e-002, 3.36788222e-002,
          1.31075475e-002, 1.76566653e-002, 1.73382554e-002,
          1.62304603e-002, 5.50980633e-003, 1.09252306e-002,
          1.80672463e-002, 6.51314408e-002, 6.50604144e-002,
          5.47789522e-002, 1.08301558e-001, 1.05325215e-001,
          4.21727635e-002, 5.23845069e-002, 7.86101297e-002,
          8.21017176e-002, 6.59418106e-002, 7.41206706e-002,
          9.33142081e-002, 1.02392010e-001, 5.32120802e-002,
          5.54055870e-002, 6.51037544e-002, 5.80079705e-002,
          4.85292003e-002, 4.47039902e-002, 4.56037819e-002,
          6.20849207e-002, 4.84524146e-002, 4.30762507e-002,
          5.23905084e-002, 4.54096608e-002, 2.80300304e-002,
          2.68780980e-002, 5.63037060e-002, 4.29714285e-002,
          2.66429931e-002, 3.32389474e-002, 5.43528832e-002,
          2.64772385e-001, 2.10843191e-001, 1.93333060e-001,
          2.29845911e-001, 2.08223388e-001, 1.77359715e-001,
          2.40116343e-001, 3.05219442e-001, 2.71631479e-001,
          1.90689281e-001, 1.84385926e-001, 2.46340781e-001,
          2.21250564e-001, 1.78162098e-001, 2.40986153e-001,
          3.09512615e-001 ]
      - [ 1.61952227e-002, 1.62488297e-002, 1.17622018e-002,
          1.61254350e-002, 1.99005958e-002, 1.55872544e-002,
          1.48701593e-002, 1.20086875e-002, 1.20533342e-002,
          1.30890133e-002, 1.44266756e-002, 1.17278406e-002,
          1.87448580e-002, 1.42959170e-002, 1.19614499e-002,
          9.33241099e-003, 8.45997781e-002, 7.24663883e-002,
          6.29671738e-002, 1.02715880e-001, 1.08731575e-001,
          6.12443686e-002, 5.85371181e-002, 7.45723993e-002,
          7.07467571e-002, 6.50355741e-002, 5.73305413e-002,
          4.38425206e-002, 5.45570180e-002, 4.99290265e-002,
          6.12033680e-002, 8.20446014e-002, 8.23075250e-002,
          7.39738271e-002, 6.73483461e-002, 6.71624839e-002,
          7.75494799e-002, 6.43344074e-002, 6.85992911e-002,
          5.65725528e-002, 5.36933988e-002, 3.15966457e-002,
          3.56872380e-002, 2.64850333e-002, 6.71577677e-002,
          7.03353211e-002, 6.03328682e-002, 7.02583343e-002,
          2.31856957e-001, 2.41420686e-001, 2.23477200e-001,
          3.04682463e-001, 2.54629731e-001, 2.29898408e-001,
          2.21088231e-001, 2.15759143e-001, 2.34844223e-001,
          2.18688324e-001, 2.29169413e-001, 2.16612995e-001,
          2.09117204e-001, 1.93307236e-001, 2.15627477e-001,
          2.31428921e-001 ]
      - [ 3.52704898e-002, 2.26321574e-002, 2.12873369e-002,
          1.25131756e-002, 4.35262471e-002, 2.96674762e-002,
          3.93966921e-002, 4.64634337e-002, 5.02702706e-002,
          2.85631474e-002, 2.41976846e-002, 1.20218238e-002,
          3.55130024e-002, 1.13554401e-002, 1.49008371e-002,
          2.30381861e-002, 1.53829500e-001, 8.14909339e-002,
          8.49209055e-002, 1.59262732e-001, 1.89663976e-001,
          1.09684706e-001, 7.44355023e-002, 8.72962922e-002,
          9.41441506e-002, 7.83982724e-002, 6.05186149e-002,
          1.09838828e-001, 1.25854641e-001, 6.52332455e-002,
          1.06481321e-001, 2.14208797e-001, 6.50803149e-002,
          5.39415032e-002, 5.35109825e-002, 7.86019117e-002,
          7.63834193e-002, 4.28834595e-002, 4.10094149e-002,
          3.14042158e-002, 3.53794470e-002, 2.29373630e-002,
          2.02367306e-002, 2.62852311e-002, 5.40985353e-002,
          4.64154407e-002, 5.40536642e-002, 4.23902161e-002,
          2.31177837e-001, 2.05547392e-001, 1.82591990e-001,
          1.91061527e-001, 2.07373798e-001, 1.85893208e-001,
          2.42134526e-001, 3.17856342e-001, 2.60143876e-001,
          1.67868704e-001, 1.58051148e-001, 1.71790630e-001,
          1.78112194e-001, 1.46349326e-001, 1.98616922e-001,
          2.60632485e-001 ]
      - [ 1.67962939e-001, 7.49799833e-002, 6.56702071e-002,
          5.15454672e-002, 5.39245158e-002, 4.51821461e-002,
          4.79964986e-002, 9.96986255e-002, 1.42631456e-001,
          4.47370522e-002, 2.62156297e-002, 0., 1.49687845e-002, 0.,
          4.99139577e-002, 9.80696604e-002, 2.14809522e-001,
          1.33190855e-001, 1.48196980e-001, 1.58494726e-001,
          1.98106259e-001, 1.44971505e-001, 1.55607998e-001,
          2.47578338e-001, 1.40989780e-001, 1.38583392e-001,
          1.33210823e-001, 1.25602171e-001, 1.87073976e-001,
          1.04982667e-001, 1.54126376e-001, 2.74615586e-001,
          1.01787105e-001, 4.83736657e-002, 3.71870883e-002,
          2.96441820e-002, 3.81931663e-002, 3.66269834e-002,
          8.57409313e-002, 9.15588960e-002, 9.10469145e-002,
          6.58564270e-002, 6.43083155e-002, 3.69016975e-002,
          4.76753600e-002, 3.19638178e-002, 3.44826132e-002,
          1.50123566e-001, 2.10841835e-001, 1.48223475e-001,
          1.26621500e-001, 1.53729498e-001, 1.70070753e-001,
          1.19221196e-001, 1.91340923e-001, 1.96389645e-001,
          2.03100145e-001, 1.35598585e-001, 1.02209367e-001,
          7.51186907e-002, 1.01906732e-001, 7.12074414e-002,
          8.27599019e-002, 1.76150024e-001 ]
      - [ 3.93539034e-002, 1.97945759e-002, 1.47178713e-002,
          1.56019852e-002, 2.19288077e-002, 1.28432708e-002,
          1.96182635e-002, 2.03435570e-002, 1.77133419e-002,
          1.71962492e-002, 1.02427388e-002, 1.07351616e-002,
          1.42035317e-002, 1.46079948e-002, 2.95792986e-002,
          2.49051414e-002, 9.17681158e-002, 6.39418662e-002,
          5.36102168e-002, 1.01968937e-001, 1.28871158e-001,
          7.31836110e-002, 6.15649633e-002, 8.31617117e-002,
          1.24121211e-001, 1.00864962e-001, 9.82019827e-002,
          1.89503178e-001, 1.22420900e-001, 4.80856411e-002,
          4.22452018e-002, 4.85954508e-002, 7.84576610e-002,
          3.74042951e-002, 3.19117308e-002, 3.52493674e-002,
          3.51907425e-002, 3.73769253e-002, 4.77035157e-002,
          1.35146201e-001, 1.49646267e-001, 7.92629272e-002,
          5.42073250e-002, 9.26970989e-002, 1.04399122e-001,
          1.00911461e-001, 7.41479546e-002, 9.41836610e-002,
          2.92301357e-001, 1.81274548e-001, 1.63980067e-001,
          1.72402069e-001, 1.77862361e-001, 1.51092350e-001,
          1.97404623e-001, 3.12197536e-001, 2.96442300e-001,
          1.75629511e-001, 1.53577194e-001, 1.95277035e-001,
          1.73289120e-001, 1.57275483e-001, 2.10363016e-001,
          2.97423899e-001 ]
      - [ 8.46702382e-002, 3.53949293e-002, 5.45099676e-002,
          4.63914387e-002, 7.96219409e-002, 5.43827601e-002,
          5.05545773e-002, 8.51289257e-002, 9.48723033e-002,
          6.41706809e-002, 8.78697038e-002, 8.67823735e-002,
          7.83295184e-002, 7.68136457e-002, 6.31268919e-002,
          9.26980302e-002, 1.55022025e-001, 1.17208429e-001,
          1.44593835e-001, 1.16259821e-001, 1.81246504e-001,
          1.24302045e-001, 1.34965509e-001, 1.60411105e-001,
          1.53003350e-001, 1.20440118e-001, 1.26609549e-001,
          1.59980059e-001, 1.61944404e-001, 1.24082983e-001,
          1.06904544e-001, 1.19714074e-001, 6.86933100e-002,
          7.51154795e-002, 1.02425858e-001, 1.06419504e-001,
          1.12026095e-001, 7.99104571e-002, 8.62915441e-002,
          7.76691437e-002, 1.09119512e-001, 7.49494210e-002,
          7.62240663e-002, 5.46111204e-002, 6.13213219e-002,
          4.56150547e-002, 5.90033866e-002, 7.09814206e-002,
          1.74728885e-001, 1.60641000e-001, 2.06360042e-001,
          1.84445351e-001, 1.53856128e-001, 1.02812909e-001,
          1.34996280e-001, 2.26039305e-001, 2.17791334e-001,
          1.87113211e-001, 1.87789962e-001, 1.94728196e-001,
          1.70602068e-001, 1.44529656e-001, 1.67558104e-001,
          1.65946081e-001 ]
      - [ 3.81569527e-002, 3.04490123e-002, 1.87930968e-002,
          3.22461724e-002, 2.98471488e-002, 1.92063954e-002,
          3.63192260e-002, 2.89276633e-002, 4.37152795e-002,
          2.50670146e-002, 2.64797118e-002, 4.32131141e-002,
          4.84882593e-002, 2.33624093e-002, 3.58852670e-002,
          2.69401763e-002, 5.30674532e-002, 5.25369570e-002,
          5.02526350e-002, 1.09835006e-001, 1.17055446e-001,
          5.73069379e-002, 7.43011162e-002, 8.28497484e-002,
          1.09918974e-001, 8.02123100e-002, 6.16698228e-002,
          1.07649431e-001, 1.06565610e-001, 4.95063700e-002,
          6.63474351e-002, 5.80660217e-002, 1.27971649e-001,
          8.91413614e-002, 9.60842073e-002, 9.59447399e-002,
          8.28924775e-002, 7.86215812e-002, 9.59846899e-002,
          1.18909486e-001, 1.17783248e-001, 8.19438025e-002,
          7.72480592e-002, 8.70674476e-002, 1.08444020e-001,
          8.54793116e-002, 7.48536363e-002, 1.11580148e-001,
          2.00536355e-001, 1.76617712e-001, 1.73188895e-001,
          2.70679504e-001, 2.34755248e-001, 1.61350310e-001,
          1.98493972e-001, 2.24420652e-001, 2.12232158e-001,
          1.74640864e-001, 1.55952692e-001, 2.64942139e-001,
          3.09839159e-001, 1.90069512e-001, 1.88955590e-001,
          2.09467188e-001 ]
      - [ 7.57030025e-002, 5.45240529e-002, 5.91224171e-002,
          9.73471180e-002, 1.08685285e-001, 8.67969915e-002,
          8.87975097e-002, 6.56477734e-002, 5.89914061e-002,
          3.57666686e-002, 7.31146857e-002, 1.19451746e-001,
          1.15457296e-001, 5.28438762e-002, 4.45431173e-002,
          3.90735269e-002, 8.85230824e-002, 7.48458728e-002,
          8.83525163e-002, 1.82311043e-001, 2.20988914e-001,
          1.30295217e-001, 1.37247086e-001, 2.06148624e-001,
          1.94109038e-001, 1.26590580e-001, 1.15806870e-001,
          2.31826320e-001, 2.32023761e-001, 7.56021887e-002,
          5.41663766e-002, 6.58054948e-002, 7.44822547e-002,
          4.17766310e-002, 6.23403303e-002, 1.47779509e-001,
          1.31802022e-001, 4.96979989e-002, 4.08129022e-002,
          7.40126595e-002, 9.26597044e-002, 4.85947765e-002,
          7.01566935e-002, 1.26495451e-001, 1.61629528e-001,
          1.18690096e-001, 8.41440111e-002, 5.29697090e-002,
          2.17590243e-001, 1.60792783e-001, 1.28163308e-001,
          1.52452499e-001, 1.72989935e-001, 1.04965650e-001,
          1.10654190e-001, 1.16692111e-001, 1.23221196e-001,
          1.31623611e-001, 1.19654588e-001, 1.81077093e-001,
          1.91466287e-001, 1.23571798e-001, 1.47085369e-001,
          2.42183700e-001 ]
      - [ 5.83955385e-002, 5.78520745e-002, 7.22549111e-002,
          9.92494598e-002, 1.15191914e-001, 9.21794325e-002,
          9.53561217e-002, 1.32333323e-001, 8.14860687e-002,
          3.03618088e-002, 4.54546660e-002, 3.25661562e-002,
          4.72568795e-002, 1.73058361e-002, 4.91409674e-002,
          5.18855192e-002, 1.08230919e-001, 7.07917958e-002,
          9.80415940e-002, 1.79463774e-001, 1.70402855e-001,
          8.03232193e-002, 8.42381716e-002, 1.17742881e-001,
          1.29116878e-001, 1.34748995e-001, 1.77351952e-001,
          1.82959303e-001, 1.68704823e-001, 9.09994841e-002,
          8.59425291e-002, 1.06069975e-001, 9.67269391e-002,
          7.28746131e-002, 6.38525710e-002, 6.25938922e-002,
          8.35495666e-002, 5.40150627e-002, 5.55039272e-002,
          8.02883729e-002, 8.40995237e-002, 4.78983447e-002,
          3.53973620e-002, 5.70891611e-002, 7.73545578e-002,
          5.94709367e-002, 5.49984612e-002, 9.33946446e-002,
          2.22690538e-001, 1.78035036e-001, 1.84696823e-001,
          2.43142128e-001, 2.22810298e-001, 1.25931561e-001,
          1.33998454e-001, 1.94229230e-001, 2.00057238e-001,
          1.34040907e-001, 1.10226594e-001, 1.78386673e-001,
          2.07404792e-001, 1.41345918e-001, 2.03546181e-001,
          2.49036759e-001 ]
      - [ 6.97803199e-002, 3.90857421e-002, 3.14443186e-002,
          3.13895009e-002, 3.75160649e-002, 1.47057492e-002,
          1.59625560e-002, 1.54115418e-002, 3.99820805e-002,
          2.58308779e-002, 6.53099492e-002, 1.25830770e-001,
          1.29242018e-001, 4.73173000e-002, 2.71154195e-002,
          7.54256248e-002, 8.29916224e-002, 6.00795038e-002,
          9.65358093e-002, 2.37697855e-001, 2.51216650e-001,
          1.25843853e-001, 1.59103185e-001, 2.40026534e-001,
          2.13559598e-001, 1.34120598e-001, 1.25405356e-001,
          1.90523714e-001, 1.70256272e-001, 4.95523289e-002,
          5.08159176e-002, 5.00841849e-002, 6.24214709e-002,
          5.09174392e-002, 3.25712189e-002, 2.79728696e-002,
          6.86098114e-002, 7.10902214e-002, 7.43229613e-002,
          6.68195039e-002, 7.23370984e-002, 6.13424145e-002,
          4.80406247e-002, 8.95321965e-002, 1.46333173e-001,
          6.00692965e-002, 4.97168265e-002, 5.15166819e-002,
          2.71965742e-001, 2.11203918e-001, 1.71892747e-001,
          2.48371333e-001, 2.72084862e-001, 5.01889214e-002,
          5.96151911e-002, 6.66282997e-002, 1.14475720e-001,
          1.02094717e-001, 1.01259656e-001, 2.11294800e-001,
          1.79065943e-001, 1.02001309e-001, 1.45136699e-001,
          1.93846926e-001 ]
      - [ 1.25118895e-002, 9.11635347e-003, 7.09345983e-003,
          6.68083876e-003, 9.12464131e-003, 8.59161280e-003,
          9.39792022e-003, 8.02444387e-003, 1.96044613e-002,
          1.76558420e-002, 1.49954343e-002, 1.59269404e-002,
          2.01932695e-002, 9.51469596e-003, 1.21972058e-002,
          7.92894885e-003, 3.53395268e-002, 4.11306284e-002,
          4.99334037e-002, 8.40314850e-002, 8.13270733e-002,
          4.70956229e-002, 4.54017669e-002, 3.61150876e-002,
          3.67337354e-002, 4.27184403e-002, 4.26982790e-002,
          6.42283186e-002, 9.08944160e-002, 4.24482934e-002,
          3.72895524e-002, 2.95131430e-002, 5.07723056e-002,
          3.69343311e-002, 3.37776989e-002, 3.20328511e-002,
          3.51115838e-002, 3.06677744e-002, 3.48981768e-002,
          3.57112773e-002, 5.33771478e-002, 3.71299721e-002,
          4.25338149e-002, 3.88017744e-002, 4.27098684e-002,
          3.58305871e-002, 4.22114618e-002, 3.89544517e-002,
          2.96010792e-001, 2.72329867e-001, 2.15529934e-001,
          2.45537162e-001, 2.60203540e-001, 1.94696099e-001,
          1.85007945e-001, 2.51473874e-001, 3.34858030e-001,
          2.16648281e-001, 1.88086659e-001, 2.20364198e-001,
          2.39466220e-001, 2.00345084e-001, 2.11495161e-001,
          2.64162838e-001 ]
